{"learner":{"attributes":{"scikit_learn":"{\"_estimator_type\": \"classifier\"}"},"feature_names":["block_range_pct","median_range_pct","avg_body_pct","avg_wick_pct","big_candle_freq","realized_vol","abs_efficiency","path_efficiency","abs_net_pct","color_uniformity","dir_consistency","structure_strength","longest_run","close_position","wick_symmetry","wick_to_body","winner_rejection","counter_energy","max_pullback_ratio","avg_overlap","q4_range_expansion","q4_range_share","q4_agrees_with_block","q4_wick_to_body","q4_winner_rejection","q4_volume_ratio","momentum_decay","counter_tail_count","last_candle_wick_pct","late_giveback","first_half_magnitude","second_half_magnitude","halves_agree","half_momentum_shift","reversal_point","control_strength_15m","control_strength_1h","control_strength_2h","control_vote_strength","tf_all_agree","vol_ratio","cur_bearish","cur_bullish","cur_chop_calm","cur_chop_volatile","prev1_bearish","prev1_bullish","prev1_chop_calm","prev1_chop_volatile","prev2_bearish","prev2_bullish","prev2_chop_calm","prev2_chop_volatile","regime_streak","cnt6_bearish","cnt6_bullish","cnt6_chop_calm","cnt6_chop_volatile","dir_streak","move_shrinking","dir_balance_6","dir_balance_12","range_3b","efficiency_3b","prev_range","range_change","prev_momentum_decay","session_00-04","session_04-08","session_08-12","session_12-16","session_16-20","session_20-00","day_of_week","is_weekend"],"feature_types":[],"gradient_booster":{"model":{"cats":{"enc":[],"feature_segments":[],"sorted_idx":[]},"gbtree_model_param":{"num_parallel_tree":"1","num_trees":"1136"},"iteration_indptr":[0,4,8,12,16,20,24,28,32,36,40,44,48,52,56,60,64,68,72,76,80,84,88,92,96,100,104,108,112,116,120,124,128,132,136,140,144,148,152,156,160,164,168,172,176,180,184,188,192,196,200,204,208,212,216,220,224,228,232,236,240,244,248,252,256,260,264,268,272,276,280,284,288,292,296,300,304,308,312,316,320,324,328,332,336,340,344,348,352,356,360,364,368,372,376,380,384,388,392,396,400,404,408,412,416,420,424,428,432,436,440,444,448,452,456,460,464,468,472,476,480,484,488,492,496,500,504,508,512,516,520,524,528,532,536,540,544,548,552,556,560,564,568,572,576,580,584,588,592,596,600,604,608,612,616,620,624,628,632,636,640,644,648,652,656,660,664,668,672,676,680,684,688,692,696,700,704,708,712,716,720,724,728,732,736,740,744,748,752,756,760,764,768,772,776,780,784,788,792,796,800,804,808,812,816,820,824,828,832,836,840,844,848,852,856,860,864,868,872,876,880,884,888,892,896,900,904,908,912,916,920,924,928,932,936,940,944,948,952,956,960,964,968,972,976,980,984,988,992,996,1000,1004,1008,1012,1016,1020,1024,1028,1032,1036,1040,1044,1048,1052,1056,1060,1064,1068,1072,1076,1080,1084,1088,1092,1096,1100,1104,1108,1112,1116,1120,1124,1128,1132,1136],"tree_info":[0,1,2,3,0,1,2,3,0,1,2,3,0,1,2,3,0,1,2,3,0,1,2,3,0,1,2,3,0,1,2,3,0,1,2,3,0,1,2,3,0,1,2,3,0,1,2,3,0,1,2,3,0,1,2,3,0,1,2,3,0,1,2,3,0,1,2,3,0,1,2,3,0,1,2,3,0,1,2,3,0,1,2,3,0,1,2,3,0,1,2,3,0,1,2,3,0,1,2,3,0,1,2,3,0,1,2,3,0,1,2,3,0,1,2,3,0,1,2,3,0,1,2,3,0,1,2,3,0,1,2,3,0,1,2,3,0,1,2,3,0,1,2,3,0,1,2,3,0,1,2,3,0,1,2,3,0,1,2,3,0,1,2,3,0,1,2,3,0,1,2,3,0,1,2,3,0,1,2,3,0,1,2,3,0,1,2,3,0,1,2,3,0,1,2,3,0,1,2,3,0,1,2,3,0,1,2,3,0,1,2,3,0,1,2,3,0,1,2,3,0,1,2,3,0,1,2,3,0,1,2,3,0,1,2,3,0,1,2,3,0,1,2,3,0,1,2,3,0,1,2,3,0,1,2,3,0,1,2,3,0,1,2,3,0,1,2,3,0,1,2,3,0,1,2,3,0,1,2,3,0,1,2,3,0,1,2,3,0,1,2,3,0,1,2,3,0,1,2,3,0,1,2,3,0,1,2,3,0,1,2,3,0,1,2,3,0,1,2,3,0,1,2,3,0,1,2,3,0,1,2,3,0,1,2,3,0,1,2,3,0,1,2,3,0,1,2,3,0,1,2,3,0,1,2,3,0,1,2,3,0,1,2,3,0,1,2,3,0,1,2,3,0,1,2,3,0,1,2,3,0,1,2,3,0,1,2,3,0,1,2,3,0,1,2,3,0,1,2,3,0,1,2,3,0,1,2,3,0,1,2,3,0,1,2,3,0,1,2,3,0,1,2,3,0,1,2,3,0,1,2,3,0,1,2,3,0,1,2,3,0,1,2,3,0,1,2,3,0,1,2,3,0,1,2,3,0,1,2,3,0,1,2,3,0,1,2,3,0,1,2,3,0,1,2,3,0,1,2,3,0,1,2,3,0,1,2,3,0,1,2,3,0,1,2,3,0,1,2,3,0,1,2,3,0,1,2,3,0,1,2,3,0,1,2,3,0,1,2,3,0,1,2,3,0,1,2,3,0,1,2,3,0,1,2,3,0,1,2,3,0,1,2,3,0,1,2,3,0,1,2,3,0,1,2,3,0,1,2,3,0,1,2,3,0,1,2,3,0,1,2,3,0,1,2,3,0,1,2,3,0,1,2,3,0,1,2,3,0,1,2,3,0,1,2,3,0,1,2,3,0,1,2,3,0,1,2,3,0,1,2,3,0,1,2,3,0,1,2,3,0,1,2,3,0,1,2,3,0,1,2,3,0,1,2,3,0,1,2,3,0,1,2,3,0,1,2,3,0,1,2,3,0,1,2,3,0,1,2,3,0,1,2,3,0,1,2,3,0,1,2,3,0,1,2,3,0,1,2,3,0,1,2,3,0,1,2,3,0,1,2,3,0,1,2,3,0,1,2,3,0,1,2,3,0,1,2,3,0,1,2,3,0,1,2,3,0,1,2,3,0,1,2,3,0,1,2,3,0,1,2,3,0,1,2,3,0,1,2,3,0,1,2,3,0,1,2,3,0,1,2,3,0,1,2,3,0,1,2,3,0,1,2,3,0,1,2,3,0,1,2,3,0,1,2,3,0,1,2,3,0,1,2,3,0,1,2,3,0,1,2,3,0,1,2,3,0,1,2,3,0,1,2,3,0,1,2,3,0,1,2,3,0,1,2,3,0,1,2,3,0,1,2,3,0,1,2,3,0,1,2,3,0,1,2,3,0,1,2,3,0,1,2,3,0,1,2,3,0,1,2,3,0,1,2,3,0,1,2,3,0,1,2,3,0,1,2,3,0,1,2,3,0,1,2,3,0,1,2,3,0,1,2,3,0,1,2,3,0,1,2,3,0,1,2,3,0,1,2,3,0,1,2,3,0,1,2,3,0,1,2,3,0,1,2,3,0,1,2,3,0,1,2,3,0,1,2,3,0,1,2,3,0,1,2,3,0,1,2,3,0,1,2,3,0,1,2,3,0,1,2,3,0,1,2,3,0,1,2,3,0,1,2,3,0,1,2,3,0,1,2,3,0,1,2,3,0,1,2,3,0,1,2,3,0,1,2,3,0,1,2,3,0,1,2,3,0,1,2,3,0,1,2,3,0,1,2,3,0,1,2,3,0,1,2,3,0,1,2,3,0,1,2,3,0,1,2,3,0,1,2,3,0,1,2,3,0,1,2,3,0,1,2,3,0,1,2,3,0,1,2,3,0,1,2,3,0,1,2,3,0,1,2,3,0,1,2,3,0,1,2,3,0,1,2,3,0,1,2,3,0,1,2,3,0,1,2,3,0,1,2,3,0,1,2,3,0,1,2,3,0,1,2,3,0,1,2,3,0,1,2,3,0,1,2,3,0,1,2,3,0,1,2,3,0,1,2,3,0,1,2,3,0,1,2,3],"trees":[{"base_weights":[-5.3711613E-3,-1.8898614E-1,5.317799E-2,-4.469349E-2,-2.978197E-1,1.3798876E-1,-6.193825E-2,3.5211074E-3,-1.1154309E-1,-3.7683865E-1,-1.1281257E-1,1.8302056E-1,-5.0919387E-2,1.7544176E-1,-8.988046E-2,-3.6068053E-3,1.5100182E-3,-9.514791E-3,-5.836474E-3,2.2185782E-3,-4.610947E-3,2.573533E-3,8.0366405E-3,-2.4056497E-3,5.765184E-3,-3.5659468E-4,6.7113196E-3,-9.782179E-4,-4.520963E-3],"categories":[],"categories_nodes":[],"categories_segments":[],"categories_sizes":[],"default_left":[0,0,0,0,0,0,0,0,0,0,0,0,0,0,0,0,0,0,0,0,0,0,0,0,0,0,0,0,0],"id":0,"left_children":[1,3,5,7,9,11,13,-1,15,17,19,21,23,25,27,-1,-1,-1,-1,-1,-1,-1,-1,-1,-1,-1,-1,-1,-1],"loss_changes":[2.5237862E1,8.710316E0,1.7377245E1,3.7124689E0,4.325342E0,8.809481E0,4.9914784E0,0E0,2.6062315E0,1.0662479E0,2.832598E0,9.450386E0,4.6646943E0,2.6003783E0,3.6035662E0,0E0,0E0,0E0,0E0,0E0,0E0,0E0,0E0,0E0,0E0,0E0,0E0,0E0,0E0],"parents":[2147483647,0,0,1,1,2,2,3,3,4,4,5,5,6,6,8,8,9,9,10,10,11,11,12,12,13,13,14,14],"right_children":[2,4,6,8,10,12,14,-1,16,18,20,22,24,26,28,-1,-1,-1,-1,-1,-1,-1,-1,-1,-1,-1,-1,-1,-1],"split_conditions":[1.3061285E-3,4E0,1.6666667E-1,5.3003764E-1,1.1942378E-3,1E0,1.1202776E-2,3.5211074E-3,9.85434E-3,4.371289E-1,8.09275E-1,4.1194308E-1,5.12848E-1,5.254415E-1,4.9130318E-1,-3.6068053E-3,1.5100182E-3,-9.514791E-3,-5.836474E-3,2.2185782E-3,-4.610947E-3,2.573533E-3,8.0366405E-3,-2.4056497E-3,5.765184E-3,-3.5659468E-4,6.7113196E-3,-9.782179E-4,-4.520963E-3],"split_indices":[3,73,60,10,5,72,62,0,0,19,15,7,19,16,19,0,0,0,0,0,0,0,0,0,0,0,0,0,0],"split_type":[0,0,0,0,0,0,0,0,0,0,0,0,0,0,0,0,0,0,0,0,0,0,0,0,0,0,0,0,0],"sum_hessian":[2.3354778E3,5.651082E2,1.7703696E3,2.4676747E2,3.1834073E2,1.0215212E3,7.4884845E2,5.448113E1,1.9228635E2,2.1899278E2,9.9347946E1,8.270983E2,1.9442285E2,7.531215E1,6.735363E2,1.4261237E2,4.9673973E1,9.213721E1,1.26855576E2,3.2848915E1,6.649902E1,6.68195E2,1.5890329E2,1.6424458E2,3.0178272E1,3.3917175E1,4.1394978E1,5.237132E2,1.498231E2],"tree_param":{"num_deleted":"0","num_feature":"75","num_nodes":"29","size_leaf_vector":"1"}},{"base_weights":[1.5102268E-2,-1.9388475E-1,6.6640325E-2,-4.047696E-1,-1.3371481E-1,-1.7004672E-2,1.7866531E-1,-1.0359787E-2,-4.724151E-3,-4.979569E-2,-2.3177372E-1,3.2536954E-2,-1.1185486E-1,1.4121093E-1,5.1731944E-1,9.6915074E-4,-4.638974E-3,-7.7685725E-4,-6.701864E-3,-1.0944146E-3,2.1531768E-3,-3.4126458E-3,1.962781E-3,1.7094673E-3,6.6662556E-3,2.2889157E-3,1.4139194E-2],"categories":[],"categories_nodes":[],"categories_segments":[],"categories_sizes":[],"default_left":[0,0,0,0,0,0,0,0,0,0,0,0,0,0,0,0,0,0,0,0,0,0,0,0,0,0,0],"id":1,"left_children":[1,3,5,7,9,11,13,-1,-1,15,17,19,21,23,25,-1,-1,-1,-1,-1,-1,-1,-1,-1,-1,-1,-1],"loss_changes":[2.9081219E1,6.3370533E0,2.044124E1,1.452261E0,3.291823E0,5.8944473E0,1.1263685E1,0E0,0E0,4.3063903E0,3.5759706E0,5.3916574E0,5.404251E0,8.741791E0,6.2442265E0,0E0,0E0,0E0,0E0,0E0,0E0,0E0,0E0,0E0,0E0,0E0,0E0],"parents":[2147483647,0,0,1,1,2,2,3,3,4,4,5,5,6,6,9,9,10,10,11,11,12,12,13,13,14,14],"right_children":[2,4,6,8,10,12,14,-1,-1,16,18,20,22,24,26,-1,-1,-1,-1,-1,-1,-1,-1,-1,-1,-1,-1],"split_conditions":[1.0367349E-3,6.3623354E-4,1.6666667E-1,1.9568558E-4,4.6244392E-1,2.977826E-1,5.6983167E-1,-1.0359787E-2,-4.724151E-3,2.164431E-4,9.809982E-4,8.1650054E-1,1E0,2.5988005E-2,3E0,9.6915074E-4,-4.638974E-3,-7.7685725E-4,-6.701864E-3,-1.0944146E-3,2.1531768E-3,-3.4126458E-3,1.962781E-3,1.7094673E-3,6.6662556E-3,2.2889157E-3,1.4139194E-2],"split_indices":[2,3,60,33,19,7,36,0,0,66,3,25,42,62,57,0,0,0,0,0,0,0,0,0,0,0,0],"split_type":[0,0,0,0,0,0,0,0,0,0,0,0,0,0,0,0,0,0,0,0,0,0,0,0,0,0,0],"sum_hessian":[2.6993174E3,5.304309E2,2.1688867E3,1.12088745E2,4.1834216E2,1.2406326E3,9.282541E2,6.1556934E1,5.053181E1,2.3060881E2,1.8773334E2,8.127965E2,4.27836E2,8.4097186E2,8.728222E1,1.4945166E2,8.115715E1,6.860076E1,1.19132576E2,3.733229E2,4.3947363E2,3.3657248E2,9.126351E1,6.572198E2,1.8375204E2,3.0319086E1,5.6963135E1],"tree_param":{"num_deleted":"0","num_feature":"75","num_nodes":"27","size_leaf_vector":"1"}},{"base_weights":[-1.7513586E-2,7.914575E-2,-2.9188198E-1,9.1491723E-1,-4.21921E-1,2.9109577E-2,6.769856E-3,-4.662105E-1,4.739739E-3,-1.2954725E-3,-9.841658E-3],"categories":[],"categories_nodes":[],"categories_segments":[],"categories_sizes":[],"default_left":[0,0,0,0,0,0,0,0,0,0,0],"id":2,"left_children":[1,-1,3,5,7,-1,-1,9,-1,-1,-1],"loss_changes":[8.333923E2,0E0,1.1332994E2,1.9516052E1,1.9388565E1,0E0,0E0,5.960861E0,0E0,0E0,0E0],"parents":[2147483647,0,0,2,2,3,3,4,4,7,7],"right_children":[2,-1,4,6,8,-1,-1,10,-1,-1,-1],"split_conditions":[6.5475213E-4,7.914575E-2,9.287592E-4,1.208083E0,1E0,2.9109577E-2,6.769856E-3,1.090397E-3,4.739739E-3,-1.2954725E-3,-9.841658E-3],"split_indices":[2,0,2,15,56,0,0,2,0,0,0],"split_type":[0,0,0,0,0,0,0,0,0,0,0],"sum_hessian":[7.596906E2,4.6335247E1,7.1335535E2,6.7255264E1,6.461001E2,3.1898706E1,3.535656E1,6.069399E2,3.9160202E1,3.8555077E1,5.683848E2],"tree_param":{"num_deleted":"0","num_feature":"75","num_nodes":"11","size_leaf_vector":"1"}},{"base_weights":[1.8613649E-3,-6.2113607E-1,2.0815559E-2,-1.5426391E-2,-6.514152E-3,-2.1548124E-1,3.1775046E-2,-1.2147373E-2,-1.1927179E-1,-3.1154838E-3,1.3230023E-1,-4.380462E-3,4.0678037E-3,1.6906816E-3,-6.5677083E-4,-2.814521E-3,3.1896573E-3],"categories":[],"categories_nodes":[],"categories_segments":[],"categories_sizes":[],"default_left":[0,0,0,0,0,0,0,0,0,0,0,0,0,0,0,0,0],"id":3,"left_children":[1,3,5,-1,-1,7,9,-1,11,13,15,-1,-1,-1,-1,-1,-1],"loss_changes":[4.9284386E1,4.1641464E0,1.048323E1,0E0,0E0,6.168684E0,1.3743147E1,0E0,4.920557E0,7.522167E0,7.561432E0,0E0,0E0,0E0,0E0,0E0,0E0],"parents":[2147483647,0,0,1,1,2,2,5,5,6,6,8,8,9,9,10,10],"right_children":[2,4,6,-1,-1,8,10,-1,12,14,16,-1,-1,-1,-1,-1,-1],"split_conditions":[5.296174E-4,1.2608765E-3,7.6353736E-4,-1.5426391E-2,-6.514152E-3,3.7242857E-1,5E0,-1.2147373E-2,7.457883E-1,6.4931905E-1,7.7753427E-4,-4.380462E-3,4.0678037E-3,1.6906816E-3,-6.5677083E-4,-2.814521E-3,3.1896573E-3],"split_indices":[3,8,3,0,0,21,73,0,28,20,2,0,0,0,0,0,0],"split_type":[0,0,0,0,0,0,0,0,0,0,0,0,0,0,0,0,0],"sum_hessian":[4.192801E3,1.2020316E2,4.0725977E3,7.536548E1,4.483769E1,1.7601178E2,3.896586E3,3.0527788E1,1.45484E2,2.891077E3,1.00550903E3,1.1304822E2,3.2435776E1,7.2646594E2,2.164611E3,8.8244385E1,9.1726465E2],"tree_param":{"num_deleted":"0","num_feature":"75","num_nodes":"17","size_leaf_vector":"1"}},{"base_weights":[-2.994744E-4,-3.5016316E-1,2.803156E-2,-2.8288998E-3,-4.3121243E-1,8.830367E-2,-9.962215E-2,-1.00398585E-2,-6.3929027E-3,4.817077E-3,1.8522622E-1,-2.2182114E-1,-3.9434936E-2,2.144025E-3,-1.1185757E-3,4.6062605E-3,-2.5561778E-5,-5.57091E-3,-0E0,2.1490755E-3,-1.7554122E-3],"categories":[],"categories_nodes":[],"categories_segments":[],"categories_sizes":[],"default_left":[0,0,0,0,0,0,0,0,0,0,0,0,0,0,0,0,0,0,0,0,0],"id":4,"left_children":[1,3,5,-1,7,9,11,-1,-1,13,15,17,19,-1,-1,-1,-1,-1,-1,-1,-1],"loss_changes":[2.347254E1,2.5333843E0,1.6750256E1,0E0,9.22451E-2,1.1888195E1,4.9629607E0,0E0,0E0,5.0293264E0,5.855444E0,2.9439573E0,3.3752522E0,0E0,0E0,0E0,0E0,0E0,0E0,0E0,0E0],"parents":[2147483647,0,0,1,1,2,2,4,4,5,5,6,6,9,9,10,10,11,11,12,12],"right_children":[2,4,6,-1,8,10,12,-1,-1,14,16,18,20,-1,-1,-1,-1,-1,-1,-1,-1],"split_conditions":[1.3712095E-3,4E0,1.6666667E-1,-2.8288998E-3,1.0527656E-3,6.0226E-3,5.560397E-1,-1.00398585E-2,-6.3929027E-3,4.659091E-1,1E0,1.5680321E0,6.25E-2,2.144025E-3,-1.1185757E-3,4.6062605E-3,-2.5561778E-5,-5.57091E-3,-0E0,2.1490755E-3,-1.7554122E-3],"split_indices":[1,73,61,0,1,8,18,0,0,28,72,25,9,0,0,0,0,0,0,0,0],"split_type":[0,0,0,0,0,0,0,0,0,0,0,0,0,0,0,0,0,0,0,0,0],"sum_hessian":[2.3458728E3,1.7450139E2,2.1713713E3,5.2837868E1,1.2166353E2,1.4782517E3,6.931196E2,6.5273026E1,5.6390503E1,7.9863544E2,6.796162E2,2.2332852E2,4.6979114E2,2.9960413E2,4.990313E2,5.488981E2,1.3071812E2,1.7847702E2,4.4851498E1,1.1284613E2,3.56945E2],"tree_param":{"num_deleted":"0","num_feature":"75","num_nodes":"21","size_leaf_vector":"1"}},{"base_weights":[6.7834873E-3,-2.132916E-1,5.9535537E-2,-1.2556137E-1,-2.9630846E-1,-1.2127525E-2,1.8735093E-1,-2.4217997E-2,-2.863475E-1,-1.422045E-1,-3.5209033E-1,4.2177313E-3,-2.9855654E-1,-1.417832E-2,2.3295309E-1,-2.261901E-3,4.699969E-3,-3.8777574E-4,-8.037326E-3,-6.0987244E-3,-1.1362618E-4,-9.666044E-3,-5.497831E-3,7.4511446E-4,-1.5868583E-3,-3.2191311E-3,-8.079752E-3,-3.4042941E-3,3.6330565E-3,3.778894E-3,8.21928E-3],"categories":[],"categories_nodes":[],"categories_segments":[],"categories_sizes":[],"default_left":[0,0,0,0,0,0,0,0,0,0,0,0,0,0,0,0,0,0,0,0,0,0,0,0,0,0,0,0,0,0,0],"id":5,"left_children":[1,3,5,7,9,11,13,15,17,19,21,23,25,27,29,-1,-1,-1,-1,-1,-1,-1,-1,-1,-1,-1,-1,-1,-1,-1,-1],"loss_changes":[3.1098213E1,3.4457607E0,1.9949263E1,4.055551E0,1.8437557E0,6.654952E0,7.3006687E0,3.8080854E0,2.7949095E0,1.543605E0,1.1165848E0,3.6195855E0,6.35026E-1,4.5176773E0,4.476322E0,0E0,0E0,0E0,0E0,0E0,0E0,0E0,0E0,0E0,0E0,0E0,0E0,0E0,0E0,0E0,0E0],"parents":[2147483647,0,0,1,1,2,2,3,3,4,4,5,5,6,6,7,7,8,8,9,9,10,10,11,11,12,12,13,13,14,14],"right_children":[2,4,6,8,10,12,14,16,18,20,22,24,26,28,30,-1,-1,-1,-1,-1,-1,-1,-1,-1,-1,-1,-1,-1,-1,-1,-1],"split_conditions":[1.0367349E-3,1E0,2E0,4.6819142E-1,7.5954825E-1,2E0,1.4438742E-3,3.125E-1,6.23112E-1,2.5019354E-1,9.1337025E-1,2.3333333E-1,1.1583979E0,1.3023934E0,7.326947E-1,-2.261901E-3,4.699969E-3,-3.8777574E-4,-8.037326E-3,-6.0987244E-3,-1.1362618E-4,-9.666044E-3,-5.497831E-3,7.4511446E-4,-1.5868583E-3,-3.2191311E-3,-8.079752E-3,-3.4042941E-3,3.6330565E-3,3.778894E-3,8.21928E-3],"split_indices":[2,74,55,19,25,58,2,12,18,13,25,11,15,23,10,0,0,0,0,0,0,0,0,0,0,0,0,0,0,0,0],"split_type":[0,0,0,0,0,0,0,0,0,0,0,0,0,0,0,0,0,0,0,0,0,0,0,0,0,0,0,0,0,0,0],"sum_hessian":[2.6790479E3,5.14405E2,2.164643E3,2.566956E2,2.577094E2,1.3862236E3,7.784193E2,1.6147783E2,9.521776E1,7.370421E1,1.8400522E2,1.3125333E3,7.369037E1,1.4199683E2,6.364225E2,1.2294419E2,3.853364E1,3.1123821E1,6.409394E1,3.026548E1,4.3438725E1,5.9913765E1,1.2409145E2,9.4610925E2,3.6642407E2,3.7313824E1,3.6376545E1,8.066743E1,6.132939E1,5.1748206E2,1.189404E2],"tree_param":{"num_deleted":"0","num_feature":"75","num_nodes":"31","size_leaf_vector":"1"}},{"base_weights":[1.0967272E-2,3.4312387E0,-3.2786053E-1,9.0097845E-2,4.4368286E-2,5.000599E-1,-4.581986E-1,2.0421002E-2,3.2016435E-3,-1.5497512E-1,-9.971795E-3,4.552793E-4,-7.5820396E-3],"categories":[],"categories_nodes":[],"categories_segments":[],"categories_sizes":[],"default_left":[0,0,0,0,0,0,0,0,0,0,0,0,0],"id":6,"left_children":[1,3,5,-1,-1,7,9,-1,-1,11,-1,-1,-1],"loss_changes":[8.8072156E2,5.587036E1,7.5146835E1,0E0,0E0,1.5709148E1,6.770561E0,0E0,0E0,3.2376175E0,0E0,0E0,0E0],"parents":[2147483647,0,0,1,1,2,2,5,5,6,6,9,9],"right_children":[2,4,6,-1,-1,8,10,-1,-1,12,-1,-1,-1],"split_conditions":[1.3980045E-3,1.0150746E-3,2.0129662E-3,9.0097845E-2,4.4368286E-2,4.4599524E-1,2.4440773E-3,2.0421002E-2,3.2016435E-3,1.0626682E0,-9.971795E-3,4.552793E-4,-7.5820396E-3],"split_indices":[1,1,1,0,0,21,1,0,0,20,0,0,0],"split_type":[0,0,0,0,0,0,0,0,0,0,0,0,0],"sum_hessian":[7.527233E2,6.551207E1,6.872113E2,3.0211716E1,3.5300354E1,9.1792175E1,5.954191E2,3.329285E1,5.8499325E1,7.3150986E1,5.222681E2,4.1056454E1,3.2094532E1],"tree_param":{"num_deleted":"0","num_feature":"75","num_nodes":"13","size_leaf_vector":"1"}},{"base_weights":[5.6527304E-3,-3.673298E-1,3.284435E-2,-6.6496366E-1,-2.3195003E-1,3.3773922E-3,1.1611973E-1,-1.6757147E-2,-9.315612E-3,-3.456385E-1,4.3988726E-3,1.0611219E-1,-4.478173E-2,-1.7664225E-1,1.4882319E-1,-1.0090878E-2,-4.1667456E-3,1.4972772E-3,5.588466E-3,1.7633297E-3,-1.2700704E-3,-8.165992E-3,-8.856871E-5,3.4750318E-3,-2.3278517E-3],"categories":[],"categories_nodes":[],"categories_segments":[],"categories_sizes":[],"default_left":[0,0,0,0,0,0,0,0,0,0,0,0,0,0,0,0,0,0,0,0,0,0,0,0,0],"id":7,"left_children":[1,3,5,7,9,11,13,-1,-1,15,-1,17,19,21,23,-1,-1,-1,-1,-1,-1,-1,-1,-1,-1],"loss_changes":[4.2272606E1,1.0495674E1,9.511391E0,1.130291E0,1.0583763E1,1.4337926E1,9.783253E0,0E0,0E0,2.8654575E0,0E0,4.776165E0,4.897039E0,3.850622E0,6.1467724E0,0E0,0E0,0E0,0E0,0E0,0E0,0E0,0E0,0E0,0E0],"parents":[2147483647,0,0,1,1,2,2,3,3,4,4,5,5,6,6,9,9,11,11,12,12,13,13,14,14],"right_children":[2,4,6,8,10,12,14,-1,-1,16,-1,18,20,22,24,-1,-1,-1,-1,-1,-1,-1,-1,-1,-1],"split_conditions":[7.465492E-4,3.720194E-3,5E0,3.8398465E-4,1E0,7.3267746E-1,7.7753427E-4,-1.6757147E-2,-9.315612E-3,5.033846E-1,4.3988726E-3,9.307536E-1,1.1738113E-3,1E0,6.949821E-3,-1.0090878E-2,-4.1667456E-3,1.4972772E-3,5.588466E-3,1.7633297E-3,-1.2700704E-3,-8.165992E-3,-8.856871E-5,3.4750318E-3,-2.3278517E-3],"split_indices":[3,64,73,3,70,25,2,0,0,21,0,24,3,52,1,0,0,0,0,0,0,0,0,0,0],"split_type":[0,0,0,0,0,0,0,0,0,0,0,0,0,0,0,0,0,0,0,0,0,0,0,0,0],"sum_hessian":[4.177996E3,2.800932E2,3.8979028E3,8.274613E1,1.9734706E2,2.885866E3,1.0120366E3,3.780296E1,4.4943172E1,1.591257E2,3.8221367E1,9.2321094E2,1.9626552E3,9.882858E1,9.1320807E2,6.835237E1,9.077333E1,7.882659E2,1.3494502E2,2.3759535E2,1.7250597E3,3.914959E1,5.9678997E1,8.374167E2,7.579135E1],"tree_param":{"num_deleted":"0","num_feature":"75","num_nodes":"25","size_leaf_vector":"1"}},{"base_weights":[2.685341E-4,-3.429089E-1,2.996631E-2,-2.1733008E-3,-3.8775432E-1,9.334546E-2,-5.8217894E-2,-2.3162964E-1,-9.601693E-3,-5.5671267E-2,1.4276032E-1,-2.0159602E-2,-1.7212912E-1,-8.064275E-3,-6.374372E-4,6.6659314E-4,-3.9825104E-3,8.932344E-4,3.8875358E-3,8.731046E-5,-5.8802706E-3,-4.5233113E-3,2.8210015E-3],"categories":[],"categories_nodes":[],"categories_segments":[],"categories_sizes":[],"default_left":[0,0,0,0,0,0,0,0,0,0,0,0,0,0,0,0,0,0,0,0,0,0,0],"id":8,"left_children":[1,3,5,-1,7,9,11,13,-1,15,17,19,21,-1,-1,-1,-1,-1,-1,-1,-1,-1,-1],"loss_changes":[2.3653957E1,1.5659618E0,1.2058803E1,0E0,1.5029144E0,9.318121E0,3.7875936E0,1.9487786E0,0E0,4.092472E0,4.6484985E0,4.715659E0,3.8827248E0,0E0,0E0,0E0,0E0,0E0,0E0,0E0,0E0,0E0,0E0],"parents":[2147483647,0,0,1,1,2,2,4,4,5,5,6,6,7,7,9,9,10,10,11,11,12,12],"right_children":[2,4,6,-1,8,10,12,14,-1,16,18,20,22,-1,-1,-1,-1,-1,-1,-1,-1,-1,-1],"split_conditions":[1.3712095E-3,1.3895431E-1,1.6666667E-1,-2.1733008E-3,1.3333334E-1,1.4599602E-3,5E0,5.5371085E-4,-9.601693E-3,2.028125E-1,7.7043766E-1,2.2650943E-3,3.8632622E-1,-8.064275E-3,-6.374372E-4,6.6659314E-4,-3.9825104E-3,8.932344E-4,3.8875358E-3,8.731046E-5,-5.8802706E-3,-4.5233113E-3,2.8210015E-3],"split_indices":[1,13,60,0,11,3,73,2,0,29,20,26,29,0,0,0,0,0,0,0,0,0,0],"split_type":[0,0,0,0,0,0,0,0,0,0,0,0,0,0,0,0,0,0,0,0,0,0,0],"sum_hessian":[2.3302534E3,1.8173296E2,2.1485205E3,3.26434E1,1.4908955E2,1.2532719E3,8.952487E2,6.1328476E1,8.776108E1,3.0948438E2,9.437875E2,6.7698505E2,2.1826366E2,3.000058E1,3.1327896E1,1.9026129E2,1.19223076E2,3.3065356E2,6.131339E2,6.223744E2,5.4610664E1,1.8821823E2,3.0045422E1],"tree_param":{"num_deleted":"0","num_feature":"75","num_nodes":"23","size_leaf_vector":"1"}},{"base_weights":[-0E0,-7.242516E-2,1.5602428E-1,-2.5913662E-1,-2.3957392E-2,-5.4512445E-2,2.3014812E-1,4.185516E-4,-2.9431236E-1,-8.885624E-2,4.160745E-2,7.626071E-2,-2.0911549E-1,2.042443E-1,1.139362E-2,-6.3323276E-3,-1.2401299E-3,-5.532555E-4,-3.5130894E-3,-7.4035174E-4,2.6388126E-3,5.183286E-3,-3.9645527E-3,-3.9565607E-4,-7.015659E-3,7.3627266E-3,3.1432535E-3],"categories":[],"categories_nodes":[],"categories_segments":[],"categories_sizes":[],"default_left":[0,0,0,0,0,0,0,0,0,0,0,0,0,0,0,0,0,0,0,0,0,0,0,0,0,0,0],"id":9,"left_children":[1,3,5,7,9,11,13,-1,15,17,19,21,23,25,-1,-1,-1,-1,-1,-1,-1,-1,-1,-1,-1,-1,-1],"loss_changes":[3.0221052E1,1.6374928E1,1.335491E1,3.8409023E0,6.2303524E0,4.590761E0,4.7989273E0,0E0,1.483244E0,3.7958498E0,5.1937904E0,6.229087E0,2.5838299E0,4.1222E0,0E0,0E0,0E0,0E0,0E0,0E0,0E0,0E0,0E0,0E0,0E0,0E0,0E0],"parents":[2147483647,0,0,1,1,2,2,3,3,4,4,5,5,6,6,8,8,9,9,10,10,11,11,12,12,13,13],"right_children":[2,4,6,8,10,12,14,-1,16,18,20,22,24,26,-1,-1,-1,-1,-1,-1,-1,-1,-1,-1,-1,-1,-1],"split_conditions":[2E0,9.4354496E-4,1.4438742E-3,1E0,7.1500844E-1,1.2012917E-2,2.9843178E0,4.185516E-4,1.8182846E0,4E0,8.968715E-1,5E0,-1.9450874E-4,1.5670642E-2,1.139362E-2,-6.3323276E-3,-1.2401299E-3,-5.532555E-4,-3.5130894E-3,-7.4035174E-4,2.6388126E-3,5.183286E-3,-3.9645527E-3,-3.9565607E-4,-7.015659E-3,7.3627266E-3,3.1432535E-3],"split_indices":[55,2,2,73,18,64,65,0,15,73,25,73,66,62,0,0,0,0,0,0,0,0,0,0,0,0,0],"split_type":[0,0,0,0,0,0,0,0,0,0,0,0,0,0,0,0,0,0,0,0,0,0,0,0,0,0,0],"sum_hessian":[2.6689136E3,1.824186E3,8.447276E2,3.711306E2,1.4530554E3,2.18412E2,6.263156E2,3.996173E1,3.3116888E2,7.335334E2,7.1952203E2,1.1739657E2,1.0101543E2,5.8775183E2,3.8563805E1,2.9920102E2,3.196786E1,4.3592163E2,2.9761176E2,3.8267838E2,3.3684363E2,7.1645256E1,4.5751312E1,4.6208286E1,5.480714E1,1.24229454E2,4.6352237E2],"tree_param":{"num_deleted":"0","num_feature":"75","num_nodes":"27","size_leaf_vector":"1"}},{"base_weights":[8.183716E-3,3.1233172E0,-3.363991E-1,8.665231E-2,3.9582096E-2,1.4634135E-2,-4.2546955E-1,-4.660651E-1,3.4137045E-3,-2.5260746E-3,-9.912267E-3],"categories":[],"categories_nodes":[],"categories_segments":[],"categories_sizes":[],"default_left":[0,0,0,0,0,0,0,0,0,0,0],"id":10,"left_children":[1,3,5,-1,-1,-1,7,9,-1,-1,-1],"loss_changes":[8.1793335E2,7.6152466E1,6.5934746E1,0E0,0E0,0E0,1.5741043E1,5.480713E0,0E0,0E0,0E0],"parents":[2147483647,0,0,1,1,2,2,6,6,7,7],"right_children":[2,4,6,-1,-1,-1,8,10,-1,-1,-1],"split_conditions":[8.261938E-4,5.851368E-4,8.9349726E-4,8.665231E-2,3.9582096E-2,1.4634135E-2,1E0,1.2441158E-3,3.4137045E-3,-2.5260746E-3,-9.912267E-3],"split_indices":[3,3,2,0,0,0,56,3,0,0,0],"split_type":[0,0,0,0,0,0,0,0,0,0,0],"sum_hessian":[7.547525E2,7.290728E1,6.818452E2,3.1168848E1,4.1738434E1,5.0385017E1,6.3146014E2,5.9260004E2,3.8860138E1,5.0033546E1,5.4256647E2],"tree_param":{"num_deleted":"0","num_feature":"75","num_nodes":"11","size_leaf_vector":"1"}},{"base_weights":[-8.674271E-3,-4.1645816E-1,1.9282365E-2,-1.4926869E-2,-2.9375988E-1,-9.9153835E-3,1.0192669E-1,-3.9347422E-1,1.4941057E-7,9.283451E-2,-4.3247286E-2,-1.6556937E-1,1.3141431E-1,-1.3818285E-2,-5.9240917E-3,-2.4800294E-3,2.6484276E-3,4.0507937E-4,-1.5254609E-3,-2.5246164E-4,-8.967758E-3,-0E0,3.7465915E-3],"categories":[],"categories_nodes":[],"categories_segments":[],"categories_sizes":[],"default_left":[0,0,0,0,0,0,0,0,0,0,0,0,0,0,0,0,0,0,0,0,0,0,0],"id":11,"left_children":[1,3,5,-1,7,9,11,13,-1,15,17,19,21,-1,-1,-1,-1,-1,-1,-1,-1,-1,-1],"loss_changes":[4.8026917E1,9.76358E0,9.522446E0,0E0,6.1456127E0,9.916881E0,8.169907E0,3.3158588E0,0E0,6.1259656E0,4.63565E0,4.1593714E0,6.793659E0,0E0,0E0,0E0,0E0,0E0,0E0,0E0,0E0,0E0,0E0],"parents":[2147483647,0,0,1,1,2,2,4,4,5,5,6,6,7,7,9,9,10,10,11,11,12,12],"right_children":[2,4,6,-1,8,10,12,14,-1,16,18,20,22,-1,-1,-1,-1,-1,-1,-1,-1,-1,-1],"split_conditions":[7.309666E-4,7.998523E-4,1E0,-1.4926869E-2,1E0,6.618579E-1,7.7753427E-4,6.926986E-1,1.4941057E-7,6.666667E-2,7.7550495E-1,4.9287212E-1,9.901537E-1,-1.3818285E-2,-5.9240917E-3,-2.4800294E-3,2.6484276E-3,4.0507937E-4,-1.5254609E-3,-2.5246164E-4,-8.967758E-3,-0E0,3.7465915E-3],"split_indices":[3,1,74,0,70,25,2,25,0,11,65,19,15,0,0,0,0,0,0,0,0,0,0],"split_type":[0,0,0,0,0,0,0,0,0,0,0,0,0,0,0,0,0,0,0,0,0,0,0],"sum_hessian":[4.1902563E3,2.6731497E2,3.9229414E3,6.723211E1,2.0008287E2,2.8962896E3,1.0266519E3,1.498893E2,5.019358E1,7.044317E2,2.191858E3,9.88784E1,9.2777344E2,3.1158958E1,1.1873034E2,1.0581352E2,5.9861816E2,7.451395E2,1.4467184E3,6.735507E1,3.152333E1,2.7912595E2,6.486475E2],"tree_param":{"num_deleted":"0","num_feature":"75","num_nodes":"23","size_leaf_vector":"1"}},{"base_weights":[-1.6343984E-3,-2.3679936E-1,4.8926108E-2,-3.7208512E-1,-1.3334498E-1,1.14779465E-1,-4.177479E-2,-2.6156486E-3,-4.1511658E-1,-2.943247E-1,-4.916823E-2,3.378697E-2,1.9402659E-1,-8.1782736E-2,1.7283884E-1,-9.506403E-3,-6.0944417E-3,-1.2873289E-3,-9.467448E-3,-4.990981E-3,6.587336E-4,1.77581E-3,-1.8797178E-3,1.2815603E-4,5.363218E-3,-2.4608204E-3,1.4102439E-3,7.7562416E-3,-1.5077908E-3],"categories":[],"categories_nodes":[],"categories_segments":[],"categories_sizes":[],"default_left":[0,0,0,0,0,0,0,0,0,0,0,0,0,0,0,0,0,0,0,0,0,0,0,0,0,0,0,0,0],"id":12,"left_children":[1,3,5,7,9,11,13,-1,15,17,19,21,23,25,27,-1,-1,-1,-1,-1,-1,-1,-1,-1,-1,-1,-1,-1,-1],"loss_changes":[2.8099754E1,5.456358E0,1.1620085E1,1.4083118E0,3.0904794E0,7.094653E0,6.984026E0,0E0,1.5631866E-1,2.979701E0,2.8611667E0,3.984127E0,7.7226067E0,4.387208E0,7.0136776E0,0E0,0E0,0E0,0E0,0E0,0E0,0E0,0E0,0E0,0E0,0E0,0E0,0E0,0E0],"parents":[2147483647,0,0,1,1,2,2,3,3,4,4,5,5,6,6,8,8,9,9,10,10,11,11,12,12,13,13,14,14],"right_children":[2,4,6,8,10,12,14,-1,16,18,20,22,24,26,28,-1,-1,-1,-1,-1,-1,-1,-1,-1,-1,-1,-1,-1,-1],"split_conditions":[1.1212247E-3,4.4876897E-1,1.6666667E-1,1.2507857E-1,4.8068026E-1,4.0504783E-3,1E0,-2.6156486E-3,8.3851424E-5,8.3333336E-2,1.3712095E-3,7.233645E-1,6.9034405E-2,1E0,1.1242973E0,-9.506403E-3,-6.0944417E-3,-1.2873289E-3,-9.467448E-3,-4.990981E-3,6.587336E-4,1.77581E-3,-1.8797178E-3,1.2815603E-4,5.363218E-3,-2.4608204E-3,1.4102439E-3,7.7562416E-3,-1.5077908E-3],"split_indices":[3,40,60,13,16,31,70,0,26,61,1,28,36,71,20,0,0,0,0,0,0,0,0,0,0,0,0,0,0],"split_type":[0,0,0,0,0,0,0,0,0,0,0,0,0,0,0,0,0,0,0,0,0,0,0,0,0,0,0,0,0],"sum_hessian":[2.3494746E3,4.155454E2,1.9339291E3,1.746003E2,2.4094513E2,1.123169E3,8.107602E2,3.0016596E1,1.445837E2,7.811963E1,1.628255E2,5.6070416E2,5.6246484E2,6.8689655E2,1.2386365E2,8.421236E1,6.0371338E1,3.7205776E1,4.0913857E1,4.7317223E1,1.1550827E2,3.953449E2,1.6535922E2,1.621359E2,4.0032892E2,5.4351263E2,1.4338388E2,6.655357E1,5.7310078E1],"tree_param":{"num_deleted":"0","num_feature":"75","num_nodes":"29","size_leaf_vector":"1"}},{"base_weights":[9.706278E-3,-2.0244703E-1,6.1081875E-2,1.398624E-3,-2.3473962E-1,1.2431943E-2,2.3861206E-1,-2.858786E-1,-6.6385694E-2,-7.388007E-2,8.0169864E-2,1.9286813E-1,1.5819559E-2,-9.25104E-3,-4.8051756E-3,-4.0189056E-3,1.6849787E-3,3.855466E-3,-1.8854052E-3,1.1747541E-3,8.749793E-3,5.9449174E-3,-0E0],"categories":[],"categories_nodes":[],"categories_segments":[],"categories_sizes":[],"default_left":[0,0,0,0,0,0,0,0,0,0,0,0,0,0,0,0,0,0,0,0,0,0,0],"id":13,"left_children":[1,3,5,-1,7,9,11,13,15,17,19,21,-1,-1,-1,-1,-1,-1,-1,-1,-1,-1,-1],"loss_changes":[2.9201109E1,4.720421E0,1.85514E1,0E0,3.802475E0,9.980726E0,1.0748726E1,2.1872292E0,2.4481006E0,4.0688496E0,7.0200524E0,8.575289E0,0E0,0E0,0E0,0E0,0E0,0E0,0E0,0E0,0E0,0E0,0E0],"parents":[2147483647,0,0,1,1,2,2,4,4,5,5,6,6,7,7,8,8,9,9,10,10,11,11],"right_children":[2,4,6,-1,8,10,12,14,16,18,20,22,-1,-1,-1,-1,-1,-1,-1,-1,-1,-1,-1],"split_conditions":[1.2669361E-3,3.3333335E-2,1E0,1.398624E-3,4.9297625E-1,6.7731917E-1,8.376666E-1,5.851368E-4,5.787411E-1,7.577314E-3,2.684153E0,4E0,1.5819559E-2,-9.25104E-3,-4.8051756E-3,-4.0189056E-3,1.6849787E-3,3.855466E-3,-1.8854052E-3,1.1747541E-3,8.749793E-3,5.9449174E-3,-0E0],"split_indices":[5,11,42,0,37,18,10,3,16,36,20,73,0,0,0,0,0,0,0,0,0,0,0],"split_type":[0,0,0,0,0,0,0,0,0,0,0,0,0,0,0,0,0,0,0,0,0,0,0],"sum_hessian":[2.6792043E3,5.1870026E2,2.1605042E3,5.2966225E1,4.6573404E2,1.7005233E3,4.599807E2,3.5333978E2,1.1239423E2,7.443787E2,9.5614465E2,4.2937494E2,3.0605785E1,6.463758E1,2.887022E2,6.058865E1,5.1805588E1,4.9333538E1,6.9504517E2,9.0665564E2,4.9489033E1,2.7608762E2,1.532873E2],"tree_param":{"num_deleted":"0","num_feature":"75","num_nodes":"23","size_leaf_vector":"1"}},{"base_weights":[-7.305361E-3,3.1436508E0,-3.1726977E-1,8.1731305E-2,4.1463953E-2,5.167056E-1,-4.6425915E-1,1.8530859E-1,2.1517161E-2,-3.5503989E-3,-4.9148414E-1,-4.3169875E-3,1.1319373E-2,-6.5744435E-3,-1.0055414E-2],"categories":[],"categories_nodes":[],"categories_segments":[],"categories_sizes":[],"default_left":[0,0,0,0,0,0,0,0,0,0,0,0,0,0,0],"id":14,"left_children":[1,3,5,-1,-1,7,9,11,-1,-1,13,-1,-1,-1,-1],"loss_changes":[7.486225E2,4.077881E1,8.6410515E1,0E0,0E0,1.8355064E1,4.0607758E0,1.1313816E1,0E0,0E0,8.3236694E-2,0E0,0E0,0E0,0E0],"parents":[2147483647,0,0,1,1,2,2,5,5,6,6,7,7,10,10],"right_children":[2,4,6,-1,-1,8,10,12,-1,-1,14,-1,-1,-1,-1],"split_conditions":[7.6353736E-4,9.848382E-4,2.0129662E-3,8.1731305E-2,4.1463953E-2,1E0,2.344646E-3,4E0,2.1517161E-2,-3.5503989E-3,1.492889E-3,-4.3169875E-3,1.1319373E-2,-6.5744435E-3,-1.0055414E-2],"split_indices":[3,1,1,0,0,56,1,73,0,0,3,0,0,0,0],"split_type":[0,0,0,0,0,0,0,0,0,0,0,0,0,0,0],"sum_hessian":[7.618772E2,6.563391E1,6.962433E2,3.0153307E1,3.5480606E1,1.0268587E2,5.9355743E2,6.754307E1,3.5142796E1,5.5018456E1,5.3853894E2,3.287898E1,3.466409E1,4.3656178E1,4.9488278E2],"tree_param":{"num_deleted":"0","num_feature":"75","num_nodes":"15","size_leaf_vector":"1"}},{"base_weights":[-5.5443514E-3,-6.3459104E-1,9.523421E-3,-1.672989E-2,-9.138881E-3,-3.897071E-1,1.5930617E-2,-1.2285213E-2,-2.2726164E-3,3.5043666E-1,9.310922E-3,9.760679E-3,2.5198453E-3,-3.8001942E-4,1.7182684E-3],"categories":[],"categories_nodes":[],"categories_segments":[],"categories_sizes":[],"default_left":[0,0,0,0,0,0,0,0,0,0,0,0,0,0,0],"id":15,"left_children":[1,3,5,-1,-1,7,9,-1,-1,11,13,-1,-1,-1,-1],"loss_changes":[3.9858395E1,1.7351265E0,1.0255244E1,0E0,0E0,3.347803E0,8.700194E0,0E0,0E0,1.8667221E0,8.586178E0,0E0,0E0,0E0,0E0],"parents":[2147483647,0,0,1,1,2,2,5,5,6,6,9,9,10,10],"right_children":[2,4,6,-1,-1,8,10,-1,-1,12,14,-1,-1,-1,-1],"split_conditions":[4.9902155E-4,3.9731752E-4,3.720194E-3,-1.672989E-2,-9.138881E-3,2.1897998E0,1.8157917E-1,-1.2285213E-2,-2.2726164E-3,1.9788152E-2,5E0,9.760679E-3,2.5198453E-3,-3.8001942E-4,1.7182684E-3],"split_indices":[3,2,64,0,0,65,21,0,0,30,73,0,0,0,0],"split_type":[0,0,0,0,0,0,0,0,0,0,0,0,0,0,0],"sum_hessian":[4.1673257E3,9.537705E1,4.0719485E3,3.81159E1,5.7261158E1,6.0250492E1,4.011698E3,3.020031E1,3.0050182E1,7.335935E1,3.9383386E3,4.1913208E1,3.1446148E1,2.8724314E3,1.0659073E3],"tree_param":{"num_deleted":"0","num_feature":"75","num_nodes":"15","size_leaf_vector":"1"}},{"base_weights":[6.0609994E-3,-2.0086385E-1,5.765307E-2,-3.4796178E-1,-1.0491395E-1,1.21486634E-1,-7.094619E-2,-8.999436E-3,-2.6854298E-1,-1.6916706E-1,5.8229882E-2,8.772129E-2,3.0524537E-1,7.442636E-2,-1.440027E-1,-1.4043472E-3,-7.859183E-3,-6.080522E-3,-6.0335814E-4,5.022433E-3,-4.216315E-3,5.241774E-3,9.2436036E-4,-6.53771E-4,7.4930126E-3,6.333315E-3,-2.1597755E-3,-8.690146E-3,-2.2316487E-3],"categories":[],"categories_nodes":[],"categories_segments":[],"categories_sizes":[],"default_left":[0,0,0,0,0,0,0,0,0,0,0,0,0,0,0,0,0,0,0,0,0,0,0,0,0,0,0,0,0],"id":16,"left_children":[1,3,5,7,9,11,13,-1,15,17,19,21,23,25,27,-1,-1,-1,-1,-1,-1,-1,-1,-1,-1,-1,-1,-1,-1],"loss_changes":[2.5021662E1,6.257763E0,1.5509218E1,7.4523735E-1,3.1154757E0,7.5542965E0,6.6935244E0,0E0,2.4494524E0,3.7489634E0,4.4199686E0,7.572613E0,4.720501E0,9.414692E0,3.5237093E0,0E0,0E0,0E0,0E0,0E0,0E0,0E0,0E0,0E0,0E0,0E0,0E0,0E0,0E0],"parents":[2147483647,0,0,1,1,2,2,3,3,4,4,5,5,6,6,8,8,9,9,10,10,11,11,12,12,13,13,14,14],"right_children":[2,4,6,8,10,12,14,-1,16,18,20,22,24,26,28,-1,-1,-1,-1,-1,-1,-1,-1,-1,-1,-1,-1,-1,-1],"split_conditions":[1.1860641E-3,1.3712095E-3,1.6666667E-1,2.9451486E-1,2.71199E-1,3.75E-1,2.8532292E-3,-8.999436E-3,1.2410509E-1,5.225225E-1,1.0200703E-3,-1.6666667E-1,5.588235E-1,-2.2292884E-4,2.0695263E-1,-1.4043472E-3,-7.859183E-3,-6.080522E-3,-6.0335814E-4,5.022433E-3,-4.216315E-3,5.241774E-3,9.2436036E-4,-6.53771E-4,7.4930126E-3,6.333315E-3,-2.1597755E-3,-8.690146E-3,-2.2316487E-3],"split_indices":[3,1,61,63,36,9,30,0,36,21,33,61,20,66,28,0,0,0,0,0,0,0,0,0,0,0,0,0,0],"split_type":[0,0,0,0,0,0,0,0,0,0,0,0,0,0,0,0,0,0,0,0,0,0,0,0,0,0,0,0,0],"sum_hessian":[2.344253E3,4.6417477E2,1.880078E3,1.7807808E2,2.860967E2,1.2591301E3,6.209479E2,6.906891E1,1.0900917E2,2.0737677E2,7.871993E1,1.0697235E3,1.8940671E2,2.0537642E2,4.1557144E2,4.5381184E1,6.3627983E1,1.0162234E2,1.0575443E2,4.7047558E1,3.1672377E1,2.0028317E2,8.694403E2,3.1315353E1,1.5809135E2,8.845076E1,1.1692566E2,3.6437813E1,3.7913364E2],"tree_param":{"num_deleted":"0","num_feature":"75","num_nodes":"29","size_leaf_vector":"1"}},{"base_weights":[5.692292E-3,-6.60687E-2,1.5898022E-1,-2.5440946E-1,-1.6791638E-2,-5.6046493E-2,2.2912626E-1,-3.1006926E-1,-1.2620775E-1,-9.9484265E-2,3.2037765E-2,-1.4525485E-1,4.0160646E-3,1.9477142E-1,4.5130864E-1,-7.914292E-3,-3.325895E-3,1.8396416E-4,-5.8125285E-3,-7.9434394E-4,-4.3113725E-3,3.91656E-3,3.482333E-5,-4.9162447E-3,1.4469924E-3,2.1004786E-3,5.76813E-3,4.807383E-3,1.2728589E-2],"categories":[],"categories_nodes":[],"categories_segments":[],"categories_sizes":[],"default_left":[0,0,0,0,0,0,0,0,0,0,0,0,0,0,0,0,0,0,0,0,0,0,0,0,0,0,0,0,0],"id":17,"left_children":[1,3,5,7,9,11,13,15,17,19,21,23,-1,25,27,-1,-1,-1,-1,-1,-1,-1,-1,-1,-1,-1,-1,-1,-1],"loss_changes":[2.9524172E1,1.6772686E1,1.3046648E1,2.3459282E0,5.8999147E0,4.903147E0,4.361763E0,2.68919E0,2.8545713E0,3.6142163E0,4.4179134E0,3.6428344E0,0E0,4.4915695E0,2.3278313E0,0E0,0E0,0E0,0E0,0E0,0E0,0E0,0E0,0E0,0E0,0E0,0E0,0E0,0E0],"parents":[2147483647,0,0,1,1,2,2,3,3,4,4,5,5,6,6,7,7,8,8,9,9,10,10,11,11,13,13,14,14],"right_children":[2,4,6,8,10,12,14,16,18,20,22,24,-1,26,28,-1,-1,-1,-1,-1,-1,-1,-1,-1,-1,-1,-1,-1,-1],"split_conditions":[2E0,9.4354496E-4,1.4174635E-3,1.4027728E0,6.070959E-1,4.9454278E-1,6.559174E-1,4.7999248E-1,6.8639438E-3,1E0,6.666667E-2,6.5603006E-1,4.0160646E-3,2.2279607E-2,6.795121E-1,-7.914292E-3,-3.325895E-3,1.8396416E-4,-5.8125285E-3,-7.9434394E-4,-4.3113725E-3,3.91656E-3,3.482333E-5,-4.9162447E-3,1.4469924E-3,2.1004786E-3,5.76813E-3,4.807383E-3,1.2728589E-2],"split_indices":[55,2,2,15,18,19,16,40,0,41,11,10,0,62,10,0,0,0,0,0,0,0,0,0,0,0,0,0,0],"split_type":[0,0,0,0,0,0,0,0,0,0,0,0,0,0,0,0,0,0,0,0,0,0,0,0,0,0,0,0,0],"sum_hessian":[2.673905E3,1.820222E3,8.536829E2,3.727826E2,1.4474395E3,2.083817E2,6.453012E2,2.5424442E2,1.18538185E2,5.400285E2,9.0741095E2,1.5707643E2,5.130527E1,5.65709E2,7.9592186E1,1.5385786E2,1.0038655E2,6.488977E1,5.364841E1,3.619889E2,1.7803957E2,1.3651039E2,7.709006E2,1.08736824E2,4.8339603E1,2.948273E2,2.708817E2,4.168718E1,3.7905003E1],"tree_param":{"num_deleted":"0","num_feature":"75","num_nodes":"29","size_leaf_vector":"1"}},{"base_weights":[-3.1847341E-3,3.0675547E0,-2.9886162E-1,7.565597E-2,3.9760463E-2,6.1220723E-1,-4.4820294E-1,2.2674512E-2,3.5718463E-3,-1.7977764E-1,-1.012794E-2,6.376118E-3,-8.192397E-3],"categories":[],"categories_nodes":[],"categories_segments":[],"categories_sizes":[],"default_left":[0,0,0,0,0,0,0,0,0,0,0,0,0],"id":18,"left_children":[1,3,5,-1,-1,7,9,-1,-1,11,-1,-1,-1],"loss_changes":[6.954743E2,2.6489563E1,9.6013016E1,0E0,0E0,2.1216969E1,8.8157425E0,0E0,0E0,1.3473916E1,0E0,0E0,0E0],"parents":[2147483647,0,0,1,1,2,2,5,5,6,6,9,9],"right_children":[2,4,6,-1,-1,8,10,-1,-1,12,-1,-1,-1],"split_conditions":[1.2932287E-3,9.848382E-4,1.9530992E-3,7.565597E-2,3.9760463E-2,8.811802E-1,1.554679E-3,2.2674512E-2,3.5718463E-3,7.5954825E-1,-1.012794E-2,6.376118E-3,-8.192397E-3],"split_indices":[1,1,1,0,0,25,3,0,0,25,0,0,0],"split_type":[0,0,0,0,0,0,0,0,0,0,0,0,0],"sum_hessian":[7.614814E2,6.426324E1,6.9721814E2,3.3856266E1,3.040697E1,9.641069E1,6.0080743E2,4.1046394E1,5.5364296E1,1.10763054E2,4.900444E2,3.3896572E1,7.686648E1],"tree_param":{"num_deleted":"0","num_feature":"75","num_nodes":"13","size_leaf_vector":"1"}},{"base_weights":[3.3440255E-3,-3.94817E-1,2.4069965E-2,-6.463309E-1,-2.3678789E-1,-2.3085265E-3,9.753033E-2,-1.7086374E-2,-8.832632E-3,-8.966997E-3,-9.616308E-2,9.216372E-2,-3.419782E-2,-1.5011357E-1,1.3433655E-1,2.750353E-3,-7.127533E-3,2.7125222E-3,-1.6947293E-3,2.1993948E-4,-1.6843318E-3,5.39174E-4,-9.280057E-3,1.984191E-4,3.5356788E-3],"categories":[],"categories_nodes":[],"categories_segments":[],"categories_sizes":[],"default_left":[0,0,0,0,0,0,0,0,0,0,0,0,0,0,0,0,0,0,0,0,0,0,0,0,0],"id":19,"left_children":[1,3,5,7,9,11,13,-1,-1,-1,15,17,19,21,23,-1,-1,-1,-1,-1,-1,-1,-1,-1,-1],"loss_changes":[3.4334034E1,7.2782707E0,7.754408E0,1.4748936E0,3.5353441E0,8.789479E0,9.675943E0,0E0,0E0,0E0,5.4086847E0,5.7092233E0,4.995119E0,7.8301945E0,4.773306E0,0E0,0E0,0E0,0E0,0E0,0E0,0E0,0E0,0E0,0E0],"parents":[2147483647,0,0,1,1,2,2,3,3,4,4,5,5,6,6,10,10,11,11,12,12,13,13,14,14],"right_children":[2,4,6,8,10,12,14,-1,-1,-1,16,18,20,22,24,-1,-1,-1,-1,-1,-1,-1,-1,-1,-1],"split_conditions":[1.1204834E-3,3.553712E-3,5E0,1.0874649E0,0E0,6.4931905E-1,1.5641906E-3,-1.7086374E-2,-8.832632E-3,-8.966997E-3,5.4101567E-3,1.2752583E-3,1.0403215E0,4.675483E-1,1.25E-1,2.750353E-3,-7.127533E-3,2.7125222E-3,-1.6947293E-3,2.1993948E-4,-1.6843318E-3,5.39174E-4,-9.280057E-3,1.984191E-4,3.5356788E-3],"split_indices":[1,64,73,65,61,20,1,0,0,0,64,26,65,19,9,0,0,0,0,0,0,0,0,0,0],"split_type":[0,0,0,0,0,0,0,0,0,0,0,0,0,0,0,0,0,0,0,0,0,0,0,0,0],"sum_hessian":[4.1765693E3,2.0277798E2,3.9737913E3,7.344752E1,1.2933046E2,2.9210032E3,1.0527882E3,3.0497192E1,4.295032E1,4.759944E1,8.1731026E1,7.317725E2,2.1892307E3,1.3327199E2,9.195162E2,4.2793793E1,3.8937233E1,5.90275E2,1.414975E2,1.146052E3,1.0431787E3,8.5940414E1,4.733157E1,2.3784892E2,6.816673E2],"tree_param":{"num_deleted":"0","num_feature":"75","num_nodes":"25","size_leaf_vector":"1"}},{"base_weights":[2.3733152E-3,-3.4435382E-1,3.3653E-2,-2.0437174E-1,-4.1159856E-1,2.5066602E-1,4.134316E-3,-6.7348173E-3,-1.8992886E-4,-9.175683E-3,-4.6934644E-3,5.2463137E-2,3.7440956E-1,1.18098125E-1,-3.4167446E-2,-3.8006522E-3,3.8618564E-3,2.1412193E-3,1.0731518E-2,-7.002485E-4,4.67061E-3,-1.3525948E-3,2.7405818E-3],"categories":[],"categories_nodes":[],"categories_segments":[],"categories_sizes":[],"default_left":[0,0,0,0,0,0,0,0,0,0,0,0,0,0,0,0,0,0,0,0,0,0,0],"id":20,"left_children":[1,3,5,7,9,11,13,-1,-1,-1,-1,15,17,19,21,-1,-1,-1,-1,-1,-1,-1,-1],"loss_changes":[2.503953E1,1.2367096E0,1.35266485E1,1.6312683E0,3.6203957E-1,5.937521E0,8.267981E0,0E0,0E0,0E0,0E0,3.6022763E0,6.1752872E0,8.5596485E0,8.055886E0,0E0,0E0,0E0,0E0,0E0,0E0,0E0,0E0],"parents":[2147483647,0,0,1,1,2,2,3,3,4,4,5,5,6,6,11,11,12,12,13,13,14,14],"right_children":[2,4,6,8,10,12,14,-1,-1,-1,-1,16,18,20,22,-1,-1,-1,-1,-1,-1,-1,-1],"split_conditions":[1.3980045E-3,5.488061E-1,-1.6666667E-1,2.895169E-1,1.2404623E-3,1.0437028E-1,-7.030154E-2,-6.7348173E-3,-1.8992886E-4,-9.175683E-3,-4.6934644E-3,3.4386462E-3,6.666667E-2,2E-1,1E0,-3.8006522E-3,3.8618564E-3,2.1412193E-3,1.0731518E-2,-7.002485E-4,4.67061E-3,-1.3525948E-3,2.7405818E-3],"split_indices":[1,10,61,63,33,36,29,0,0,0,0,1,34,34,70,0,0,0,0,0,0,0,0],"split_type":[0,0,0,0,0,0,0,0,0,0,0,0,0,0,0,0,0,0,0,0,0,0,0],"sum_hessian":[2.3168633E3,1.8791069E2,2.1289526E3,6.732166E1,1.20589035E2,2.501927E2,1.87876E3,3.726185E1,3.0059818E1,8.9195465E1,3.1393566E1,9.935922E1,1.5083348E2,4.743057E2,1.4044542E3,3.4778812E1,6.4580414E1,5.999279E1,9.084068E1,2.0291539E2,2.7139032E2,1.1787832E3,2.2567099E2],"tree_param":{"num_deleted":"0","num_feature":"75","num_nodes":"23","size_leaf_vector":"1"}},{"base_weights":[-1.0763779E-2,-2.2493654E-1,2.9659145E-2,-3.0168414E-1,-6.240841E-2,-8.67634E-3,1.7902042E-1,-3.4970903E-1,-1.1249371E-3,-1.5346096E-1,3.5098223E-3,1.7278004E-2,-1.4160652E-1,-1.7723008E-1,2.5497082E-1,-8.003737E-3,-1.0960642E-3,-0E0,-5.4509537E-3,-2.1303976E-3,9.0448576E-4,5.376834E-3,-4.21809E-3,-1.0100439E-3,-6.531159E-3,2.5511808E-3,7.393876E-3],"categories":[],"categories_nodes":[],"categories_segments":[],"categories_sizes":[],"default_left":[0,0,0,0,0,0,0,0,0,0,0,0,0,0,0,0,0,0,0,0,0,0,0,0,0,0,0],"id":21,"left_children":[1,3,5,7,9,11,13,15,-1,17,-1,19,21,23,25,-1,-1,-1,-1,-1,-1,-1,-1,-1,-1,-1,-1],"loss_changes":[2.3436138E1,5.1246376E0,1.3067364E1,3.1465874E0,3.1842823E0,6.2927303E0,1.2775411E1,3.2730846E0,0E0,1.9022033E0,0E0,5.2032576E0,8.620793E0,1.322325E0,5.2558994E0,0E0,0E0,0E0,0E0,0E0,0E0,0E0,0E0,0E0,0E0,0E0,0E0],"parents":[2147483647,0,0,1,1,2,2,3,3,4,4,5,5,6,6,7,7,9,9,11,11,12,12,13,13,14,14],"right_children":[2,4,6,8,10,12,14,16,-1,18,-1,20,22,24,26,-1,-1,-1,-1,-1,-1,-1,-1,-1,-1,-1,-1],"split_conditions":[9.4354496E-4,1.4027728E0,1E0,1.0010558E-2,3.125E-1,3.7284386E-1,4.5419887E-1,1E0,-1.1249371E-3,8.3383495E-1,3.5098223E-3,5.891936E-1,4.7821984E-1,4.773739E-1,2.1587797E-3,-8.003737E-3,-1.0960642E-3,-0E0,-5.4509537E-3,-2.1303976E-3,9.0448576E-4,5.376834E-3,-4.21809E-3,-1.0100439E-3,-6.531159E-3,2.5511808E-3,7.393876E-3],"split_indices":[2,15,42,64,12,7,16,71,0,14,0,25,16,63,2,0,0,0,0,0,0,0,0,0,0,0,0],"split_type":[0,0,0,0,0,0,0,0,0,0,0,0,0,0,0,0,0,0,0,0,0,0,0,0,0,0,0],"sum_hessian":[2.6904465E3,4.2696E2,2.2634866E3,2.861784E2,1.4078159E2,1.8007732E3,4.6271335E2,2.3657573E2,4.9602673E1,1.0410388E2,3.6677704E1,1.5056473E3,2.9512585E2,7.945245E1,3.832609E2,1.9963805E2,3.693769E1,4.7540146E1,5.6563732E1,2.724423E2,1.2332051E3,4.034006E1,2.5478578E2,4.696137E1,3.249108E1,1.8665508E2,1.9660582E2],"tree_param":{"num_deleted":"0","num_feature":"75","num_nodes":"27","size_leaf_vector":"1"}},{"base_weights":[1.1053819E-2,2.3365924E0,-3.7719572E-1,1.9726489E-2,3.1264744E0,1.8439704E-1,-4.7743982E-1,7.9510376E-2,4.146079E-2,1.0000007E-2,-4.0130233E-3,-2.8109875E-1,-1.0152887E-2,-4.7851546E-4,-8.500096E-3],"categories":[],"categories_nodes":[],"categories_segments":[],"categories_sizes":[],"default_left":[0,0,0,0,0,0,0,0,0,0,0,0,0,0,0],"id":22,"left_children":[1,3,5,-1,7,9,11,-1,-1,-1,-1,13,-1,-1,-1],"loss_changes":[6.888238E2,1.0513135E2,3.715663E1,0E0,3.2412903E1,1.2636015E1,2.4715729E0,0E0,0E0,0E0,0E0,2.8162365E0,0E0,0E0,0E0],"parents":[2147483647,0,0,1,1,2,2,4,4,5,5,6,6,11,11],"right_children":[2,4,6,-1,8,10,12,-1,-1,-1,-1,14,-1,-1,-1],"split_conditions":[1.5641906E-3,1E0,2.1768513E-3,1.9726489E-2,1.0527656E-3,1.0540477E0,1.554679E-3,7.9510376E-2,4.146079E-2,1.0000007E-2,-4.0130233E-3,1.9101007E-3,-1.0152887E-2,-4.7851546E-4,-8.500096E-3],"split_indices":[1,74,1,0,1,20,3,0,0,0,0,31,0,0,0],"split_type":[0,0,0,0,0,0,0,0,0,0,0,0,0,0,0],"sum_hessian":[7.558971E2,1.0617323E2,6.497239E2,4.1909653E1,6.426358E1,9.727251E1,5.5245135E2,3.0713205E1,3.3550373E1,5.3678253E1,4.3594254E1,7.9985954E1,4.724654E2,3.120073E1,4.878522E1],"tree_param":{"num_deleted":"0","num_feature":"75","num_nodes":"15","size_leaf_vector":"1"}},{"base_weights":[-5.9726653E-3,-6.400977E-1,9.70057E-3,-1.8528536E-2,-4.2118543E-1,-2.1019308E-1,2.1137321E-2,-1.17978845E-2,-3.997301E-3,-1.3002081E-2,-1.137111E-1,-1.1011145E-2,1.1401879E-1,-9.261282E-3,-4.6862545E-4,1.9748667E-3,-1.0141236E-3,-3.1954125E-3,2.897035E-3],"categories":[],"categories_nodes":[],"categories_segments":[],"categories_sizes":[],"default_left":[0,0,0,0,0,0,0,0,0,0,0,0,0,0,0,0,0,0,0],"id":23,"left_children":[1,3,5,-1,7,9,11,-1,-1,-1,13,15,17,-1,-1,-1,-1,-1,-1],"loss_changes":[4.1756947E1,4.507866E0,1.015301E1,0E0,1.6382341E0,7.8554716E0,1.1620562E1,0E0,0E0,0E0,5.0235634E0,1.2520974E1,8.505047E0,0E0,0E0,0E0,0E0,0E0,0E0],"parents":[2147483647,0,0,1,1,2,2,4,4,5,5,6,6,10,10,11,11,12,12],"right_children":[2,4,6,-1,8,10,12,-1,-1,-1,14,16,18,-1,-1,-1,-1,-1,-1],"split_conditions":[4.9902155E-4,3.9731752E-4,7.6353736E-4,-1.8528536E-2,5.662978E-1,6.7283744E-1,5E0,-1.17978845E-2,-3.997301E-3,-1.3002081E-2,4.277364E-1,6.798956E-1,5.1681534E-4,-9.261282E-3,-4.6862545E-4,1.9748667E-3,-1.0141236E-3,-3.1954125E-3,2.897035E-3],"split_indices":[3,2,3,0,10,25,73,0,0,0,16,25,31,0,0,0,0,0,0],"split_type":[0,0,0,0,0,0,0,0,0,0,0,0,0,0,0,0,0,0,0],"sum_hessian":[4.1648228E3,9.834279E1,4.0664802E3,3.7419537E1,6.0923252E1,1.9630388E2,3.8701763E3,3.0453712E1,3.0469542E1,3.1281023E1,1.6502284E2,2.873018E3,9.971582E2,3.0206753E1,1.348161E2,7.585666E2,2.1144514E3,9.801821E1,8.9914E2],"tree_param":{"num_deleted":"0","num_feature":"75","num_nodes":"19","size_leaf_vector":"1"}},{"base_weights":[-2.9285636E-3,-2.077939E-1,4.7184568E-2,-4.3673986E-1,-1.5364887E-1,2.5748906E-1,1.5259669E-2,-5.1689083E-3,-1.0268513E-2,-5.0457105E-2,-2.3503892E-1,-0E0,3.3172348E-1,5.0222978E-2,-1.3860862E-1,3.7692084E-3,-2.439244E-3,-5.935608E-3,7.4887497E-4,9.252734E-3,2.4011845E-3,3.4086188E-4,4.5419377E-3,-4.8399186E-3,-1.228291E-3],"categories":[],"categories_nodes":[],"categories_segments":[],"categories_sizes":[],"default_left":[0,0,0,0,0,0,0,0,0,0,0,0,0,0,0,0,0,0,0,0,0,0,0,0,0],"id":24,"left_children":[1,3,5,7,9,11,13,-1,-1,15,17,-1,19,21,23,-1,-1,-1,-1,-1,-1,-1,-1,-1,-1],"loss_changes":[2.4311605E1,5.27808E0,1.2571724E1,3.8776207E-1,3.0394974E0,4.607033E0,8.853836E0,0E0,0E0,3.033358E0,3.7070827E0,0E0,4.8332443E0,7.785649E0,2.2273202E0,0E0,0E0,0E0,0E0,0E0,0E0,0E0,0E0,0E0,0E0],"parents":[2147483647,0,0,1,1,2,2,3,3,4,4,5,5,6,6,9,9,10,10,12,12,13,13,14,14],"right_children":[2,4,6,8,10,12,14,-1,-1,16,18,-1,20,22,24,-1,-1,-1,-1,-1,-1,-1,-1,-1,-1],"split_conditions":[1.1860641E-3,5.371992E-4,-1.6666667E-1,5.488061E-1,4E0,8.05874E-2,1E0,-5.1689083E-3,-1.0268513E-2,5.3003764E-1,1.1261748E-3,-0E0,4.0289086E-1,1E0,1E0,3.7692084E-3,-2.439244E-3,-5.935608E-3,7.4887497E-4,9.252734E-3,2.4011845E-3,3.4086188E-4,4.5419377E-3,-4.8399186E-3,-1.228291E-3],"split_indices":[3,2,61,10,73,38,72,0,0,10,2,0,38,41,54,0,0,0,0,0,0,0,0,0,0],"split_type":[0,0,0,0,0,0,0,0,0,0,0,0,0,0,0,0,0,0,0,0,0,0,0,0,0],"sum_hessian":[2.354378E3,4.6283206E2,1.8915459E3,8.270229E1,3.8012976E2,2.4444069E2,1.6471052E3,3.0776836E1,5.192546E1,1.7246729E2,2.0766248E2,5.648819E1,1.879525E2,1.3464282E3,3.0067697E2,3.698643E1,1.3548085E2,1.7057874E2,3.708374E1,1.1247065E2,7.548185E1,1.1388977E3,2.0753056E2,1.23025276E2,1.7765169E2],"tree_param":{"num_deleted":"0","num_feature":"75","num_nodes":"25","size_leaf_vector":"1"}},{"base_weights":[3.7480837E-3,-6.40237E-2,1.4818509E-1,-2.0278609E-1,-1.9431004E-2,-3.23914E-2,1.9603552E-1,-3.6423233E-1,-1.4659275E-1,-1.32624E-1,2.2002205E-2,-1.9562487E-1,8.210679E-2,5.0602093E-2,2.3522772E-1,-9.777796E-3,-3.982205E-3,-3.8951102E-3,2.5262213E-3,-1.0975363E-3,-5.003968E-3,7.6095096E-4,-4.8150853E-3,-6.329634E-4,-7.5295656E-3,-1.4382864E-3,4.1721365E-3,3.941792E-3,-3.1006923E-3,7.3848777E-3,3.383901E-3],"categories":[],"categories_nodes":[],"categories_segments":[],"categories_sizes":[],"default_left":[0,0,0,0,0,0,0,0,0,0,0,0,0,0,0,0,0,0,0,0,0,0,0,0,0,0,0,0,0,0,0],"id":25,"left_children":[1,3,5,7,9,11,13,15,17,19,21,23,25,27,29,-1,-1,-1,-1,-1,-1,-1,-1,-1,-1,-1,-1,-1,-1,-1,-1],"loss_changes":[2.633959E1,1.1177771E1,7.5344696E0,3.5863037E0,6.5745306E0,3.4803588E0,3.7126884E0,1.6194448E0,4.5051575E0,3.2399507E0,4.2076716E0,2.0478935E0,2.1875572E0,4.6749825E0,4.2711697E0,0E0,0E0,0E0,0E0,0E0,0E0,0E0,0E0,0E0,0E0,0E0,0E0,0E0,0E0,0E0,0E0],"parents":[2147483647,0,0,1,1,2,2,3,3,4,4,5,5,6,6,7,7,8,8,9,9,10,10,11,11,12,12,13,13,14,14],"right_children":[2,4,6,8,10,12,14,16,18,20,22,24,26,28,30,-1,-1,-1,-1,-1,-1,-1,-1,-1,-1,-1,-1,-1,-1,-1,-1],"split_conditions":[2E0,1.2669361E-3,1.6362425E-3,6.3623354E-4,3.7068817E-1,1.1738113E-3,3.414241E-1,4.2762074E-1,3.6406857E-1,1.5881709E0,2E0,9.6644345E-4,8.18795E-1,4.433385E-3,4.2184895E-1,-9.777796E-3,-3.982205E-3,-3.8951102E-3,2.5262213E-3,-1.0975363E-3,-5.003968E-3,7.6095096E-4,-4.8150853E-3,-6.329634E-4,-7.5295656E-3,-1.4382864E-3,4.1721365E-3,3.941792E-3,-3.1006923E-3,7.3848777E-3,3.383901E-3],"split_indices":[55,5,5,3,21,3,63,19,29,23,58,3,25,1,19,0,0,0,0,0,0,0,0,0,0,0,0,0,0,0,0],"split_type":[0,0,0,0,0,0,0,0,0,0,0,0,0,0,0,0,0,0,0,0,0,0,0,0,0,0,0,0,0,0,0],"sum_hessian":[2.6805947E3,1.8232905E3,8.57304E2,4.381164E2,1.3851742E3,1.7760057E2,6.797035E2,1.0657577E2,3.3154062E2,3.726318E2,1.01254236E3,7.414194E1,1.0345863E2,1.4845421E2,5.3124927E2,5.565165E1,5.0924118E1,2.8409418E2,4.7446453E1,2.2951543E2,1.431164E2,9.584808E2,5.406156E1,4.2184036E1,3.19579E1,4.5455673E1,5.800296E1,8.8188416E1,6.02658E1,1.6830974E2,3.629395E2],"tree_param":{"num_deleted":"0","num_feature":"75","num_nodes":"31","size_leaf_vector":"1"}},{"base_weights":[2.0936015E-3,2.4103496E0,-3.2151616E-1,7.205996E-2,3.2362368E-2,2.825009E-1,-4.7707486E-1,1.4980661E-2,-5.0611142E-2,-3.3637688E-1,-1.0118322E-2,4.6986295E-3,-4.7390806E-3,-1.7337535E-3,-8.738796E-3],"categories":[],"categories_nodes":[],"categories_segments":[],"categories_sizes":[],"default_left":[0,0,0,0,0,0,0,0,0,0,0,0,0,0,0],"id":26,"left_children":[1,3,5,-1,-1,7,9,-1,11,13,-1,-1,-1,-1,-1],"loss_changes":[5.8993304E2,6.464557E1,6.3074684E1,0E0,0E0,2.184874E1,1.2244568E0,0E0,4.556179E0,2.1930294E0,0E0,0E0,0E0,0E0,0E0],"parents":[2147483647,0,0,1,1,2,2,5,5,6,6,8,8,9,9],"right_children":[2,4,6,-1,-1,8,10,-1,12,14,-1,-1,-1,-1,-1],"split_conditions":[8.261938E-4,5.296174E-4,1.3546033E-3,7.205996E-2,3.2362368E-2,8.457652E-1,1.7210514E-3,1.4980661E-2,5.63763E-1,7.5311047E-1,-1.0118322E-2,4.6986295E-3,-4.7390806E-3,-1.7337535E-3,-8.738796E-3],"split_indices":[3,3,3,0,0,25,3,0,10,25,0,0,0,0,0],"split_type":[0,0,0,0,0,0,0,0,0,0,0,0,0,0,0],"sum_hessian":[7.4964624E2,8.669263E1,6.629536E2,3.0101734E1,5.6590897E1,1.3461116E2,5.2834247E2,5.5140568E1,7.947059E1,9.929105E1,4.2905142E2,3.0013662E1,4.9456924E1,3.153943E1,6.775162E1],"tree_param":{"num_deleted":"0","num_feature":"75","num_nodes":"15","size_leaf_vector":"1"}},{"base_weights":[-6.0136276E-3,-3.415713E-1,1.6911827E-2,-6.5862036E-1,-2.1247557E-1,-1.4896924E-2,1.0632129E-1,-1.7944891E-2,-8.308254E-3,-3.2198894E-1,-4.6446823E-2,8.501492E-2,-4.6512503E-2,-1.7581362E-1,1.3176385E-1,-1.1045201E-2,-2.8772878E-3,3.3817308E-3,-3.9150715E-3,1.2769082E-3,7.0043867E-3,1.3886127E-3,-1.3858055E-3,-7.068637E-3,-3.305045E-4,1.1328293E-3,4.4601345E-3],"categories":[],"categories_nodes":[],"categories_segments":[],"categories_sizes":[],"default_left":[0,0,0,0,0,0,0,0,0,0,0,0,0,0,0,0,0,0,0,0,0,0,0,0,0,0,0],"id":27,"left_children":[1,3,5,7,9,11,13,-1,-1,15,17,19,21,23,25,-1,-1,-1,-1,-1,-1,-1,-1,-1,-1,-1,-1],"loss_changes":[3.260851E1,1.0241537E1,1.1276749E1,2.6304703E0,3.3750162E0,9.184755E0,7.515093E0,0E0,0E0,4.2173862E0,2.819085E0,3.6376305E0,5.8674126E0,2.2225518E0,6.3860455E0,0E0,0E0,0E0,0E0,0E0,0E0,0E0,0E0,0E0,0E0,0E0,0E0],"parents":[2147483647,0,0,1,1,2,2,3,3,4,4,5,5,6,6,9,9,10,10,11,11,12,12,13,13,14,14],"right_children":[2,4,6,8,10,12,14,-1,-1,16,18,20,22,24,26,-1,-1,-1,-1,-1,-1,-1,-1,-1,-1,-1,-1],"split_conditions":[6.5475213E-4,3.553712E-3,5E0,1.1109005E0,1.4646974E0,6.618579E-1,7.7753427E-4,-1.7944891E-2,-8.308254E-3,5.2867517E-2,5.4774654E-1,1.1330686E0,1.1402048E-3,5.683602E-1,9.201215E-1,-1.1045201E-2,-2.8772878E-3,3.3817308E-3,-3.9150715E-3,1.2769082E-3,7.0043867E-3,1.3886127E-3,-1.3858055E-3,-7.068637E-3,-3.305045E-4,1.1328293E-3,4.4601345E-3],"split_indices":[2,64,73,65,23,25,2,0,0,36,10,24,2,10,25,0,0,0,0,0,0,0,0,0,0,0,0],"split_type":[0,0,0,0,0,0,0,0,0,0,0,0,0,0,0,0,0,0,0,0,0,0,0,0,0,0,0],"sum_hessian":[4.212474E3,2.6812128E2,3.944353E3,7.290175E1,1.9521953E2,2.9070386E3,1.0373145E3,3.168772E1,4.121403E1,1.14117485E2,8.110204E1,6.9375275E2,2.213286E3,8.271352E1,9.546009E2,4.5800484E1,6.831699E1,3.1657E1,4.944504E1,6.4766174E2,4.6090977E1,3.5880515E2,1.8544807E3,3.589384E1,4.681968E1,5.292222E2,4.2537866E2],"tree_param":{"num_deleted":"0","num_feature":"75","num_nodes":"27","size_leaf_vector":"1"}},{"base_weights":[7.918427E-3,-2.567263E-1,3.9964825E-2,-3.4107462E-1,-8.80354E-2,9.3693994E-2,-7.200464E-2,-8.443624E-3,-2.2720578E-1,-5.73256E-3,1.64666E-3,-0E0,1.7028718E-1,-1.18175045E-1,5.5670187E-2,-8.0933245E-3,-1.5051467E-3,-1.3682003E-3,1.8079486E-3,4.5127333E-3,-3.1473662E-4,-4.5136586E-3,-1.1141675E-3,3.219042E-3,-3.2228797E-3],"categories":[],"categories_nodes":[],"categories_segments":[],"categories_sizes":[],"default_left":[0,0,0,0,0,0,0,0,0,0,0,0,0,0,0,0,0,0,0,0,0,0,0,0,0],"id":28,"left_children":[1,3,5,7,9,11,13,-1,15,-1,-1,17,19,21,23,-1,-1,-1,-1,-1,-1,-1,-1,-1,-1],"loss_changes":[1.978068E1,3.2758026E0,1.26219845E1,9.089451E-1,3.2145925E0,1.0234486E1,4.0436363E0,0E0,1.7607965E0,0E0,0E0,3.9643197E0,8.171358E0,3.187944E0,4.1647577E0,0E0,0E0,0E0,0E0,0E0,0E0,0E0,0E0,0E0,0E0],"parents":[2147483647,0,0,1,1,2,2,3,3,4,4,5,5,6,6,8,8,11,11,12,12,13,13,14,14],"right_children":[2,4,6,8,10,12,14,-1,16,-1,-1,18,20,22,24,-1,-1,-1,-1,-1,-1,-1,-1,-1,-1],"split_conditions":[9.167873E-4,1.6567206E-3,1.6666667E-1,5.38209E-1,3.5180643E-1,2.0080816E-3,6.2956935E-1,-8.443624E-3,5.1301084E-3,-5.73256E-3,1.64666E-3,9.905045E-1,1E0,5.949902E-1,1E0,-8.0933245E-3,-1.5051467E-3,-1.3682003E-3,1.8079486E-3,4.5127333E-3,-3.1473662E-4,-4.5136586E-3,-1.1141675E-3,3.219042E-3,-3.2228797E-3],"split_indices":[3,31,61,16,63,3,13,0,62,0,0,25,72,18,46,0,0,0,0,0,0,0,0,0,0],"split_type":[0,0,0,0,0,0,0,0,0,0,0,0,0,0,0,0,0,0,0,0,0,0,0,0,0],"sum_hessian":[2.3385269E3,2.4863338E2,2.0898933E3,1.6173398E2,8.689941E1,1.4155763E3,6.74317E2,8.714699E1,7.458698E1,4.053581E1,4.6363594E1,6.361856E2,7.793907E2,4.9826968E2,1.7604733E2,3.0585766E1,4.400122E1,3.64558E2,2.716276E2,6.022473E2,1.771434E2,1.7729474E2,3.2097495E2,1.2057627E2,5.547107E1],"tree_param":{"num_deleted":"0","num_feature":"75","num_nodes":"25","size_leaf_vector":"1"}},{"base_weights":[-7.5691924E-3,-2.1395855E-1,3.306402E-2,1.1679155E-3,-2.4800162E-1,-4.7492035E-2,9.180823E-2,-3.928319E-1,-1.9978411E-1,-1.2860526E-1,5.6687333E-2,1.311198E-1,-4.1181076E-2,-1.0449494E-2,-4.538316E-3,-2.365084E-3,-6.9772564E-3,9.7077555E-4,-3.1256957E-3,-2.0573519E-3,3.32019E-3,1.002778E-2,2.3417308E-3,-3.1706148E-3,2.16249E-3],"categories":[],"categories_nodes":[],"categories_segments":[],"categories_sizes":[],"default_left":[0,0,0,0,0,0,0,0,0,0,0,0,0,0,0,0,0,0,0,0,0,0,0,0,0],"id":29,"left_children":[1,3,5,-1,7,9,11,13,15,17,19,21,23,-1,-1,-1,-1,-1,-1,-1,-1,-1,-1,-1,-1],"loss_changes":[2.2373423E1,4.209282E0,1.0533497E1,0E0,2.2091885E0,7.949911E0,6.7924223E0,1.2558289E0,3.3273668E0,2.6690636E0,7.2033787E0,4.6971874E0,5.2127285E0,0E0,0E0,0E0,0E0,0E0,0E0,0E0,0E0,0E0,0E0,0E0,0E0],"parents":[2147483647,0,0,1,1,2,2,4,4,5,5,6,6,7,7,8,8,9,9,10,10,11,11,12,12],"right_children":[2,4,6,-1,8,10,12,14,16,18,20,22,24,-1,-1,-1,-1,-1,-1,-1,-1,-1,-1,-1,-1],"split_conditions":[9.656048E-4,1E0,8.1650054E-1,1.1679155E-3,6.125779E-4,1.6666667E-1,5E0,5.4566973E-1,7.109005E-1,2.3919308E-1,3.7295058E-1,1.7413554E-1,1.9068309E-3,-1.0449494E-2,-4.538316E-3,-2.365084E-3,-6.9772564E-3,9.7077555E-4,-3.1256957E-3,-2.0573519E-3,3.32019E-3,1.002778E-2,2.3417308E-3,-3.1706148E-3,2.16249E-3],"split_indices":[2,73,25,0,3,60,73,21,28,28,63,17,2,0,0,0,0,0,0,0,0,0,0,0,0],"split_type":[0,0,0,0,0,0,0,0,0,0,0,0,0,0,0,0,0,0,0,0,0,0,0,0,0],"sum_hessian":[2.65155E3,4.3607767E2,2.2154724E3,4.6581215E1,3.8949643E2,9.309382E2,1.2845343E3,8.9339035E1,3.001574E2,5.2571594E2,4.0522223E2,9.9439386E2,2.9014047E2,4.4840836E1,4.4498196E1,1.9968498E2,1.0047243E2,6.829776E1,4.5741818E2,1.6297089E2,2.4225134E2,3.1205942E1,9.631879E2,1.6422672E2,1.2591376E2],"tree_param":{"num_deleted":"0","num_feature":"75","num_nodes":"25","size_leaf_vector":"1"}},{"base_weights":[-8.38803E-3,2.202496E0,-3.2624018E-1,2.2296805E-2,5.548171E-2,4.2356104E-1,-4.604428E-1,1.6697852E-2,1.6430067E-4,-2.2625741E-1,-1.0099859E-2,2.170529E-3,-7.772844E-3],"categories":[],"categories_nodes":[],"categories_segments":[],"categories_sizes":[],"default_left":[0,0,0,0,0,0,0,0,0,0,0,0,0],"id":30,"left_children":[1,3,5,-1,-1,7,9,-1,-1,11,-1,-1,-1],"loss_changes":[5.35239E2,4.8278595E1,6.774185E1,0E0,0E0,1.703323E1,5.216736E0,0E0,0E0,5.5942407E0,0E0,0E0,0E0],"parents":[2147483647,0,0,1,1,2,2,5,5,6,6,9,9],"right_children":[2,4,6,-1,-1,8,10,-1,-1,12,-1,-1,-1],"split_conditions":[8.261938E-4,5E0,2.0455339E-3,2.2296805E-2,5.548171E-2,8.968715E-1,1.554679E-3,1.6697852E-2,1.6430067E-4,7.8840965E-1,-1.0099859E-2,2.170529E-3,-7.772844E-3],"split_indices":[3,73,1,0,0,25,3,0,0,25,0,0,0],"split_type":[0,0,0,0,0,0,0,0,0,0,0,0,0],"sum_hessian":[7.569195E2,9.270819E1,6.642113E2,3.528732E1,5.742087E1,9.9287834E1,5.6492346E2,4.7757633E1,5.15302E1,9.499992E1,4.6992358E2,3.0348083E1,6.465183E1],"tree_param":{"num_deleted":"0","num_feature":"75","num_nodes":"13","size_leaf_vector":"1"}},{"base_weights":[3.884055E-3,-3.1479952E-1,2.9168122E-2,-1.3546876E-2,-2.3644882E-1,-8.334574E-4,1.1694512E-1,-1.35796415E-2,-1.4933954E-1,1.0265692E-1,-3.4279846E-2,-7.583716E-2,1.4283067E-1,-4.2066616E-3,3.0026664E-3,-2.4873065E-3,2.5061881E-3,2.637537E-4,-1.7758876E-3,-5.478277E-3,1.9210415E-3,-1.325577E-3,3.373069E-3],"categories":[],"categories_nodes":[],"categories_segments":[],"categories_sizes":[],"default_left":[0,0,0,0,0,0,0,0,0,0,0,0,0,0,0,0,0,0,0,0,0,0,0],"id":31,"left_children":[1,3,5,-1,7,9,11,-1,13,15,17,19,21,-1,-1,-1,-1,-1,-1,-1,-1,-1,-1],"loss_changes":[3.3680912E1,7.786352E0,1.0302996E1,0E0,9.237985E0,1.0007412E1,5.03238E0,0E0,4.1541204E0,3.6723847E0,5.7240086E0,4.167893E0,4.8404675E0,0E0,0E0,0E0,0E0,0E0,0E0,0E0,0E0,0E0,0E0],"parents":[2147483647,0,0,1,1,2,2,4,4,5,5,6,6,8,8,9,9,10,10,11,11,12,12],"right_children":[2,4,6,-1,8,10,12,-1,14,16,18,20,22,-1,-1,-1,-1,-1,-1,-1,-1,-1,-1],"split_conditions":[7.6353736E-4,3.8398465E-4,5E0,-1.3546876E-2,6.8640786E-1,6.618579E-1,4.705954E-1,-1.35796415E-2,6.4159137E-1,1.2441158E-3,1.0403215E0,8.8149244E-1,6.5893005E-3,-4.2066616E-3,3.0026664E-3,-2.4873065E-3,2.5061881E-3,2.637537E-4,-1.7758876E-3,-5.478277E-3,1.9210415E-3,-1.325577E-3,3.373069E-3],"split_indices":[3,3,73,0,25,25,20,0,16,3,65,40,0,0,0,0,0,0,0,0,0,0,0],"split_type":[0,0,0,0,0,0,0,0,0,0,0,0,0,0,0,0,0,0,0,0,0,0,0],"sum_hessian":[4.1913154E3,3.0411276E2,3.8872026E3,4.8833546E1,2.5527922E2,2.89499E3,9.922126E2,3.768876E1,2.1759045E2,7.0192487E2,2.193065E3,1.1448472E2,8.7772784E2,1.8290152E2,3.4688934E1,6.045948E1,6.414654E2,1.1686162E3,1.0244489E3,5.371472E1,6.0769997E1,9.3831314E1,7.8389655E2],"tree_param":{"num_deleted":"0","num_feature":"75","num_nodes":"23","size_leaf_vector":"1"}},{"base_weights":[-5.2483855E-3,-2.0660982E-1,4.3257456E-2,-3.65295E-1,-1.1708938E-1,1.128773E-1,-5.1595174E-2,-3.4252172E-3,-4.038995E-1,-1.7533714E-1,9.322878E-2,1.5023015E-1,-4.7402196E-2,-3.258252E-2,-5.6122006E-3,-6.255763E-3,-9.940121E-3,-6.1707203E-3,-1.196815E-3,4.615393E-3,-6.54251E-4,4.157539E-3,-8.682641E-4,-3.5606222E-3,1.7115831E-3,-1.3497476E-3,3.2095998E-3],"categories":[],"categories_nodes":[],"categories_segments":[],"categories_sizes":[],"default_left":[0,0,0,0,0,0,0,0,0,0,0,0,0,0,0,0,0,0,0,0,0,0,0,0,0,0,0],"id":32,"left_children":[1,3,5,7,9,11,13,-1,15,17,19,21,23,25,-1,-1,-1,-1,-1,-1,-1,-1,-1,-1,-1,-1,-1],"loss_changes":[2.2858788E1,6.0896206E0,1.2446838E1,7.076187E-1,3.7300606E0,6.579261E0,3.2722185E0,0E0,2.2781181E-1,3.3846989E0,1.2396247E0,9.98439E0,3.655727E0,4.9615273E0,0E0,0E0,0E0,0E0,0E0,0E0,0E0,0E0,0E0,0E0,0E0,0E0,0E0],"parents":[2147483647,0,0,1,1,2,2,3,3,4,4,5,5,6,6,8,8,9,9,10,10,11,11,12,12,13,13],"right_children":[2,4,6,8,10,12,14,-1,16,18,20,22,24,26,-1,-1,-1,-1,-1,-1,-1,-1,-1,-1,-1,-1,-1],"split_conditions":[1.1860641E-3,4.3600982E-1,1.6666667E-1,-3.7926048E-4,4.8593372E-1,1E0,7.8071976E-1,-3.4252172E-3,5.805838E-1,5.186465E-1,5.263158E-1,2.9146725E-1,2.8005224E-3,1.876526E0,-5.6122006E-3,-6.255763E-3,-9.940121E-3,-6.1707203E-3,-1.196815E-3,4.615393E-3,-6.54251E-4,4.157539E-3,-8.682641E-4,-3.5606222E-3,1.7115831E-3,-1.3497476E-3,3.2095998E-3],"split_indices":[3,40,60,66,19,72,10,0,10,16,16,29,3,65,0,0,0,0,0,0,0,0,0,0,0,0,0],"split_type":[0,0,0,0,0,0,0,0,0,0,0,0,0,0,0,0,0,0,0,0,0,0,0,0,0,0,0],"sum_hessian":[2.3262537E3,4.5169012E2,1.8745635E3,1.575636E2,2.9412653E2,1.0837875E3,7.90776E2,3.1001984E1,1.26561615E2,2.3258757E2,6.153896E1,8.8163226E2,2.0215518E2,7.3533875E2,5.5437225E1,7.329038E1,5.3271225E1,1.03676704E2,1.2891087E2,3.0118973E1,3.1419987E1,6.8120264E2,2.0042964E2,1.03363655E2,9.8791534E1,6.2659436E2,1.08744385E2],"tree_param":{"num_deleted":"0","num_feature":"75","num_nodes":"27","size_leaf_vector":"1"}},{"base_weights":[4.9597595E-4,-1.699524E-1,4.6748858E-2,-4.3372463E-2,-2.361583E-1,9.774279E-3,1.8261328E-1,-1.0069842E-1,4.612512E-3,-3.390542E-1,-1.4365001E-1,4.199631E-2,-1.3050476E-1,3.3656633E-1,1.2010961E-1,5.980415E-4,-4.964117E-3,-8.652209E-3,-4.9201017E-3,-7.600397E-3,-1.4803762E-3,-7.446185E-4,2.2635635E-3,-3.9698337E-3,1.9885167E-3,1.0598632E-2,3.3081558E-3,8.400154E-3,1.6161472E-3],"categories":[],"categories_nodes":[],"categories_segments":[],"categories_sizes":[],"default_left":[0,0,0,0,0,0,0,0,0,0,0,0,0,0,0,0,0,0,0,0,0,0,0,0,0,0,0,0,0],"id":33,"left_children":[1,3,5,7,9,11,13,15,-1,17,19,21,23,25,27,-1,-1,-1,-1,-1,-1,-1,-1,-1,-1,-1,-1,-1,-1],"loss_changes":[2.1281668E1,4.65267E0,1.0607106E1,3.2076628E0,3.1784096E0,7.5737715E0,4.0090656E0,3.4493868E0,0E0,8.4384537E-1,3.0631242E0,7.7924027E0,4.9855256E0,3.5866709E0,3.5272326E0,0E0,0E0,0E0,0E0,0E0,0E0,0E0,0E0,0E0,0E0,0E0,0E0,0E0,0E0],"parents":[2147483647,0,0,1,1,2,2,3,3,4,4,5,5,6,6,7,7,9,9,10,10,11,11,12,12,13,13,14,14],"right_children":[2,4,6,8,10,12,14,16,-1,18,20,22,24,26,28,-1,-1,-1,-1,-1,-1,-1,-1,-1,-1,-1,-1,-1,-1],"split_conditions":[2.0828936E-3,-1.6135156E-4,1E0,1.6869051E0,1.5318349E-4,3.5667264E-1,-1.1612832E-3,4.0742368E-1,4.612512E-3,7.975384E-4,1.5253559E-1,8.1650054E-1,1.6666667E-1,7.030332E-1,2.5617635E-1,5.980415E-4,-4.964117E-3,-8.652209E-3,-4.9201017E-3,-7.600397E-3,-1.4803762E-3,-7.446185E-4,2.2635635E-3,-3.9698337E-3,1.9885167E-3,1.0598632E-2,3.3081558E-3,8.400154E-3,1.6161472E-3],"split_indices":[1,26,42,25,26,7,26,13,0,5,13,25,60,13,37,0,0,0,0,0,0,0,0,0,0,0,0,0,0],"split_type":[0,0,0,0,0,0,0,0,0,0,0,0,0,0,0,0,0,0,0,0,0,0,0,0,0,0,0,0,0],"sum_hessian":[2.7012327E3,5.725334E2,2.1286992E3,2.0091637E2,3.7161703E2,1.678738E3,4.499612E2,1.692319E2,3.1684464E1,1.6958704E2,2.0203E2,1.3697689E3,3.0896912E2,1.2382169E2,3.261395E2,8.923076E1,8.000115E1,7.642461E1,9.316242E1,4.129536E1,1.6073463E2,6.4560297E2,7.2416595E2,2.4045505E2,6.8514084E1,5.381492E1,7.0006775E1,3.2947784E1,2.931917E2],"tree_param":{"num_deleted":"0","num_feature":"75","num_nodes":"29","size_leaf_vector":"1"}},{"base_weights":[-1.4666006E-2,1.9309187E0,-3.8080874E-1,6.464629E-2,1.3754787E0,1.7447314E-1,-4.8152462E-1,1.2809146E-2,3.7721477E-2,4.1958296E-1,-6.3625425E-3,-5.6462274E-3,-1.0026402E-2,-0E0,1.5163173E-2],"categories":[],"categories_nodes":[],"categories_segments":[],"categories_sizes":[],"default_left":[0,0,0,0,0,0,0,0,0,0,0,0,0,0,0],"id":34,"left_children":[1,3,5,-1,7,9,11,-1,-1,13,-1,-1,-1,-1,-1],"loss_changes":[5.4362616E2,7.169861E1,3.63823E1,0E0,2.8955872E1,1.2550106E1,1.33712E0,0E0,0E0,9.852508E0,0E0,0E0,0E0,0E0,0E0],"parents":[2147483647,0,0,1,1,2,2,4,4,5,5,6,6,9,9],"right_children":[2,4,6,-1,8,10,12,-1,-1,14,-1,-1,-1,-1,-1],"split_conditions":[1.5641906E-3,4.9902155E-4,2.1768513E-3,6.464629E-2,5E0,1.0200703E-3,1.4518247E-3,1.2809146E-2,3.7721477E-2,4E0,-6.3625425E-3,-5.6462274E-3,-1.0026402E-2,-0E0,1.5163173E-2],"split_indices":[1,3,1,0,73,33,3,0,0,73,0,0,0,0,0],"split_type":[0,0,0,0,0,0,0,0,0,0,0,0,0,0,0],"sum_hessian":[7.5812354E2,1.1782838E2,6.4029517E2,3.065213E1,8.717625E1,9.720554E1,5.430896E2,3.890838E1,4.8267868E1,6.5882965E1,3.1322578E1,5.550949E1,4.875801E2,3.0645025E1,3.523794E1],"tree_param":{"num_deleted":"0","num_feature":"75","num_nodes":"15","size_leaf_vector":"1"}},{"base_weights":[2.8447702E-3,-4.2755204E-1,2.1382947E-2,-5.9202504E-1,-1.7942033E-3,-2.1919872E-1,2.8550318E-2,-1.5915297E-2,-7.4058133E-3,-9.197505E-3,-6.387722E-2,4.2750416E-3,9.90773E-2,3.171527E-3,-4.9223527E-3,-1.5685513E-5,8.868095E-3,-3.6512162E-3,2.6321495E-3],"categories":[],"categories_nodes":[],"categories_segments":[],"categories_sizes":[],"default_left":[0,0,0,0,0,0,0,0,0,0,0,0,0,0,0,0,0,0,0],"id":35,"left_children":[1,3,5,7,-1,9,11,-1,-1,-1,13,15,17,-1,-1,-1,-1,-1,-1],"loss_changes":[3.331192E1,9.076141E0,6.868638E0,3.7002716E0,0E0,3.943346E0,6.6513023E0,0E0,0E0,0E0,3.1830812E0,6.7132387E0,9.183626E0,0E0,0E0,0E0,0E0,0E0,0E0],"parents":[2147483647,0,0,1,1,2,2,3,3,5,5,6,6,10,10,11,11,12,12],"right_children":[2,4,6,8,-1,10,12,-1,-1,-1,14,16,18,-1,-1,-1,-1,-1,-1],"split_conditions":[5.5371085E-4,1.4646974E0,5.8620796E-3,3.720194E-3,-1.7942033E-3,-3.973138E-4,5E0,-1.5915297E-2,-7.4058133E-3,-9.197505E-3,3.3333334E-1,4.5897436E0,8.005996E-4,3.171527E-3,-4.9223527E-3,-1.5685513E-5,8.868095E-3,-3.6512162E-3,2.6321495E-3],"split_indices":[2,23,62,64,0,33,73,0,0,0,34,23,2,0,0,0,0,0,0],"split_type":[0,0,0,0,0,0,0,0,0,0,0,0,0,0,0,0,0,0,0],"sum_hessian":[4.194084E3,1.6934218E2,4.024742E3,1.11381004E2,5.7961174E1,1.1184997E2,3.912892E3,5.282319E1,5.855781E1,4.030081E1,7.154916E1,2.9185894E3,9.9430255E2,3.115969E1,4.0389465E1,2.8871816E3,3.1407873E1,9.9929695E1,8.9437286E2],"tree_param":{"num_deleted":"0","num_feature":"75","num_nodes":"19","size_leaf_vector":"1"}},{"base_weights":[-3.831034E-3,-2.4464598E-1,3.580603E-2,-9.059539E-3,-1.7234325E-1,9.279228E-2,-7.924213E-2,-2.1159221E-1,1.1802424E-3,2.4534339E-1,5.8493122E-2,-2.1234925E-1,-3.905978E-2,-5.7312823E-3,-1.4678817E-3,3.2799654E-3,9.5898975E-3,-5.845583E-4,2.168242E-3,-5.5610067E-3,2.592003E-4,1.3479014E-4,-3.973774E-3],"categories":[],"categories_nodes":[],"categories_segments":[],"categories_sizes":[],"default_left":[0,0,0,0,0,0,0,0,0,0,0,0,0,0,0,0,0,0,0,0,0,0,0],"id":36,"left_children":[1,3,5,-1,7,9,11,13,-1,15,17,19,21,-1,-1,-1,-1,-1,-1,-1,-1,-1,-1],"loss_changes":[2.2440489E1,4.4615517E0,1.3192161E1,0E0,2.4152684E0,6.852996E0,3.399714E0,2.0280323E0,0E0,4.0830793E0,4.8937283E0,2.3691044E0,3.875552E0,0E0,0E0,0E0,0E0,0E0,0E0,0E0,0E0,0E0,0E0],"parents":[2147483647,0,0,1,1,2,2,4,4,5,5,6,6,7,7,9,9,10,10,11,11,12,12],"right_children":[2,4,6,-1,8,10,12,14,-1,16,18,20,22,-1,-1,-1,-1,-1,-1,-1,-1,-1,-1],"split_conditions":[1.7576305E-3,5.371992E-4,1.6666667E-1,-9.059539E-3,1.1059937E-2,-1.6666667E-1,5.3694373E-1,4.5871258E-1,1.1802424E-3,4.154572E-3,1.3333334E-1,8.002114E-1,1E0,-5.7312823E-3,-1.4678817E-3,3.2799654E-3,9.5898975E-3,-5.845583E-4,2.168242E-3,-5.5610067E-3,2.592003E-4,1.3479014E-4,-3.973774E-3],"split_indices":[1,2,61,0,62,61,10,19,0,3,11,28,74,0,0,0,0,0,0,0,0,0,0],"split_type":[0,0,0,0,0,0,0,0,0,0,0,0,0,0,0,0,0,0,0,0,0,0,0],"sum_hessian":[2.334279E3,3.295E2,2.004779E3,7.904157E1,2.5045844E2,1.3439922E3,6.607868E2,2.1619829E2,3.4260143E1,2.4064546E2,1.1033468E3,1.4735728E2,5.134295E2,1.3572781E2,8.047048E1,1.8397011E2,5.667535E1,3.9697766E2,7.063691E2,1.1526304E2,3.2094242E1,3.9876154E2,1.14667984E2],"tree_param":{"num_deleted":"0","num_feature":"75","num_nodes":"23","size_leaf_vector":"1"}},{"base_weights":[-4.316996E-3,-2.2047728E-1,3.817609E-2,-4.2093623E-1,-1.8358772E-1,-2.3943365E-2,1.5219326E-1,-1.0305306E-2,-5.398587E-3,-2.0764141E-1,1.6456952E-5,-1.357578E-1,1.7538019E-2,7.594669E-2,2.5904027E-1,-2.1141323E-3,-5.431783E-3,3.534397E-3,-3.2901536E-3,-1.9097071E-3,1.226613E-3,2.2680614E-4,6.7688357E-3,3.0031512E-3,8.74332E-3],"categories":[],"categories_nodes":[],"categories_segments":[],"categories_sizes":[],"default_left":[0,0,0,0,0,0,0,0,0,0,0,0,0,0,0,0,0,0,0,0,0,0,0,0,0],"id":37,"left_children":[1,3,5,7,9,11,13,-1,-1,15,-1,17,19,21,23,-1,-1,-1,-1,-1,-1,-1,-1,-1,-1],"loss_changes":[2.4700684E1,2.735035E0,1.5921804E1,1.0581684E-1,1.7930584E0,6.782707E0,6.2283344E0,0E0,0E0,1.9367676E0,0E0,3.6336908E0,5.22538E0,7.773207E0,5.831663E0,0E0,0E0,0E0,0E0,0E0,0E0,0E0,0E0,0E0,0E0],"parents":[2147483647,0,0,1,1,2,2,3,3,4,4,5,5,6,6,9,9,11,11,12,12,13,13,14,14],"right_children":[2,4,6,8,10,12,14,-1,-1,16,-1,18,20,22,24,-1,-1,-1,-1,-1,-1,-1,-1,-1,-1],"split_conditions":[9.656048E-4,9.009719E-4,2E0,5.2450895E-1,1.7995594E0,3.7242857E-1,1.3095499E0,-1.0305306E-2,-5.398587E-3,4E0,1.6456952E-5,6.283047E-1,5.649203E-1,5.652836E-1,1.0718158E-2,-2.1141323E-3,-5.431783E-3,3.534397E-3,-3.2901536E-3,-1.9097071E-3,1.226613E-3,2.2680614E-4,6.7688357E-3,3.0031512E-3,8.74332E-3],"split_indices":[2,1,55,21,15,21,23,0,0,57,0,40,18,38,8,0,0,0,0,0,0,0,0,0,0],"split_type":[0,0,0,0,0,0,0,0,0,0,0,0,0,0,0,0,0,0,0,0,0,0,0,0,0],"sum_hessian":[2.673476E3,4.3908298E2,2.234393E3,6.1283035E1,3.7779993E2,1.445068E3,7.893251E2,3.1228138E1,3.00549E1,3.3627158E2,4.152835E1,3.9244766E2,1.0526204E3,4.6634842E2,3.2297665E2,1.3571513E2,2.0055644E2,3.0299181E1,3.621485E2,2.897787E2,7.628416E2,3.7827917E2,8.8069244E1,2.0562221E2,1.1735445E2],"tree_param":{"num_deleted":"0","num_feature":"75","num_nodes":"25","size_leaf_vector":"1"}},{"base_weights":[-1.4724009E-2,1.8371711E0,-3.8542485E-1,5.7759337E-2,1.2749234E0,3.9323412E-2,-4.8842028E-1,1.4053929E-2,3.322643E-2,1.2912863E-2,-1.6818002E-1,-6.040197E-3,-1.0046585E-2,2.6055025E-3,-6.675974E-3],"categories":[],"categories_nodes":[],"categories_segments":[],"categories_sizes":[],"default_left":[0,0,0,0,0,0,0,0,0,0,0,0,0,0,0],"id":38,"left_children":[1,3,5,-1,7,9,11,-1,-1,-1,13,-1,-1,-1,-1],"loss_changes":[5.237044E2,6.201834E1,2.8133095E1,0E0,1.4892227E1,1.6426504E1,4.7424316E-1,0E0,0E0,0E0,4.9624186E0,0E0,0E0,0E0,0E0],"parents":[2147483647,0,0,1,1,2,2,4,4,5,5,6,6,10,10],"right_children":[2,4,6,-1,8,10,12,-1,-1,-1,14,-1,-1,-1,-1],"split_conditions":[1.5893724E-3,5.296174E-4,2.344646E-3,5.7759337E-2,5E0,3.7783375E-1,1.492889E-3,1.4053929E-2,3.322643E-2,1.2912863E-2,1.1854361E-1,-6.040197E-3,-1.0046585E-2,2.6055025E-3,-6.675974E-3],"split_indices":[1,3,1,0,73,21,3,0,0,0,7,0,0,0,0],"split_type":[0,0,0,0,0,0,0,0,0,0,0,0,0,0,0],"sum_hessian":[7.5782544E2,1.2419132E2,6.3363416E2,3.865309E1,8.553823E1,1.2307572E2,5.105584E2,3.8408234E1,4.713E1,3.0380325E1,9.26954E1,4.2677364E1,4.6788104E2,3.22322E1,6.0463192E1],"tree_param":{"num_deleted":"0","num_feature":"75","num_nodes":"15","size_leaf_vector":"1"}},{"base_weights":[-7.4707996E-3,-3.32274E-1,1.8528234E-2,-6.220227E-1,-2.1324202E-1,-1.0062938E-2,1.0213052E-1,-1.4863096E-2,-7.34955E-3,-4.1856447E-1,-1.8526137E-2,8.815793E-2,-4.4739407E-2,1.491837E-2,1.605272E-1,-1.1463963E-2,-3.8584094E-3,-5.0598835E-3,1.8459248E-3,1.2854912E-3,5.910488E-3,2.0783823E-3,-1.3261364E-3,-1.6497794E-4,5.702175E-3,4.397607E-3,9.828634E-4],"categories":[],"categories_nodes":[],"categories_segments":[],"categories_sizes":[],"default_left":[0,0,0,0,0,0,0,0,0,0,0,0,0,0,0,0,0,0,0,0,0,0,0,0,0,0,0],"id":39,"left_children":[1,3,5,7,9,11,13,-1,-1,15,17,19,21,23,25,-1,-1,-1,-1,-1,-1,-1,-1,-1,-1,-1,-1],"loss_changes":[3.560357E1,9.962952E0,9.337462E0,1.3453293E0,8.845694E0,9.84653E0,4.972496E0,0E0,0E0,3.0971565E0,3.295906E0,3.4891505E0,6.8776426E0,2.6855273E0,3.7481575E0,0E0,0E0,0E0,0E0,0E0,0E0,0E0,0E0,0E0,0E0,0E0,0E0],"parents":[2147483647,0,0,1,1,2,2,3,3,4,4,5,5,6,6,9,9,10,10,11,11,12,12,13,13,14,14],"right_children":[2,4,6,8,10,12,14,-1,-1,16,18,20,22,24,26,-1,-1,-1,-1,-1,-1,-1,-1,-1,-1,-1,-1],"split_conditions":[7.6353736E-4,4.5486665E-4,5E0,3.1630155E-1,5.181347E-1,6.798956E-1,7.95094E-1,-1.4863096E-2,-7.34955E-3,1.6666667E-1,5.1688665E-4,4.637803E-1,8.412538E-3,4.436566E-1,9.322798E-1,-1.1463963E-2,-3.8584094E-3,-5.0598835E-3,1.8459248E-3,1.2854912E-3,5.910488E-3,2.0783823E-3,-1.3261364E-3,-1.6497794E-4,5.702175E-3,4.397607E-3,9.828634E-4],"split_indices":[3,3,73,40,21,25,25,0,0,11,30,29,0,7,40,0,0,0,0,0,0,0,0,0,0,0,0],"split_type":[0,0,0,0,0,0,0,0,0,0,0,0,0,0,0,0,0,0,0,0,0,0,0,0,0,0,0],"sum_hessian":[4.1923867E3,3.0951678E2,3.8828699E3,8.521298E1,2.243038E2,2.8908765E3,9.9199347E2,5.2504436E1,3.270854E1,1.0624973E2,1.1805406E2,7.4933734E2,2.141539E3,4.0278513E2,5.892084E2,5.8988335E1,4.72614E1,3.8102757E1,7.99513E1,6.776323E2,7.170505E1,2.669417E2,1.8745974E3,3.719504E2,3.0834736E1,3.7954773E2,2.0966061E2],"tree_param":{"num_deleted":"0","num_feature":"75","num_nodes":"27","size_leaf_vector":"1"}},{"base_weights":[2.6748362E-3,-2.628786E-1,4.6281595E-2,-1.03600055E-1,-3.50496E-1,1.07656024E-1,-8.227902E-2,3.1481357E-3,-2.0581384E-1,-4.0710506E-1,-2.1057941E-1,9.330411E-2,9.249296E-3,2.9193114E-2,-1.4189973E-1,-6.442745E-3,-1.0676824E-3,-8.83775E-3,-5.1359544E-3,-6.295045E-3,-1.8061846E-3,1.2266298E-4,2.8444412E-3,3.3228185E-3,-3.1943913E-3,1.1999793E-3,-3.963184E-3],"categories":[],"categories_nodes":[],"categories_segments":[],"categories_sizes":[],"default_left":[0,0,0,0,0,0,0,0,0,0,0,0,0,0,0,0,0,0,0,0,0,0,0,0,0,0,0],"id":40,"left_children":[1,3,5,7,9,11,13,-1,15,17,19,21,-1,23,25,-1,-1,-1,-1,-1,-1,-1,-1,-1,-1,-1,-1],"loss_changes":[2.7123344E1,4.2704964E0,1.5988716E1,3.4141066E0,1.094595E0,6.579877E0,4.4036503E0,0E0,1.380682E0,6.0503006E-2,5.785799E-1,5.56866E0,0E0,5.9518113E0,4.970745E0,0E0,0E0,0E0,0E0,0E0,0E0,0E0,0E0,0E0,0E0,0E0,0E0],"parents":[2147483647,0,0,1,1,2,2,3,3,4,4,5,5,6,6,8,8,9,9,10,10,11,11,13,13,14,14],"right_children":[2,4,6,8,10,12,14,-1,16,18,20,22,-1,24,26,-1,-1,-1,-1,-1,-1,-1,-1,-1,-1,-1,-1],"split_conditions":[1.7576305E-3,4E0,1.6666667E-1,1.871151E-2,1.5318349E-4,3.8289988E0,2.8532292E-3,3.1481357E-3,8.585921E-4,1.243222E0,4.291627E-2,1.3333334E-1,9.249296E-3,4E0,-5.1327623E-2,-6.442745E-3,-1.0676824E-3,-8.83775E-3,-5.1359544E-3,-6.295045E-3,-1.8061846E-3,1.2266298E-4,2.8444412E-3,3.3228185E-3,-3.1943913E-3,1.1999793E-3,-3.963184E-3],"split_indices":[1,73,61,35,26,40,30,0,3,25,35,11,0,73,29,0,0,0,0,0,0,0,0,0,0,0,0],"split_type":[0,0,0,0,0,0,0,0,0,0,0,0,0,0,0,0,0,0,0,0,0,0,0,0,0,0,0],"sum_hessian":[2.3454731E3,3.270818E2,2.0183914E3,1.20422005E2,2.0665977E2,1.3691437E3,6.4924774E2,3.2055473E1,8.836653E1,1.4050871E2,6.615107E1,1.3209113E3,4.8232365E1,2.2385445E2,4.253933E2,4.6364338E1,4.200219E1,1.06676605E2,3.3832108E1,3.0620487E1,3.5530582E1,4.796969E2,8.4121436E2,1.3152026E2,9.233418E1,9.072417E1,3.3466916E2],"tree_param":{"num_deleted":"0","num_feature":"75","num_nodes":"27","size_leaf_vector":"1"}},{"base_weights":[-9.579142E-3,-7.4308515E-2,1.2731573E-1,-2.5140586E-1,-3.0118175E-2,-7.906865E-2,1.7358632E-1,-8.554593E-3,-2.1155094E-1,-1.3823302E-1,1.02559E-2,1.9274829E-2,-6.5434864E-3,1.5183103E-1,1.0231561E-2,7.246746E-4,-5.443629E-3,2.1700077E-3,-3.3189866E-3,1.0937225E-3,-2.671641E-3,-3.0526312E-3,3.1304348E-3,3.4102302E-3,-2.992517E-3],"categories":[],"categories_nodes":[],"categories_segments":[],"categories_sizes":[],"default_left":[0,0,0,0,0,0,0,0,0,0,0,0,0,0,0,0,0,0,0,0,0,0,0,0,0],"id":41,"left_children":[1,3,5,7,9,11,13,-1,15,17,19,21,-1,23,-1,-1,-1,-1,-1,-1,-1,-1,-1,-1,-1],"loss_changes":[2.3747437E1,1.4109694E1,8.290819E0,1.949585E0,6.464219E0,4.012986E0,4.615877E0,0E0,4.701668E0,2.8317113E0,6.7968802E0,2.7656264E0,0E0,3.8464527E0,0E0,0E0,0E0,0E0,0E0,0E0,0E0,0E0,0E0,0E0,0E0],"parents":[2147483647,0,0,1,1,2,2,3,3,4,4,5,5,6,6,8,8,9,9,10,10,11,11,13,13],"right_children":[2,4,6,8,10,12,14,-1,16,18,20,22,-1,24,-1,-1,-1,-1,-1,-1,-1,-1,-1,-1,-1],"split_conditions":[2E0,9.4354496E-4,1.2856722E-3,9.009719E-4,3.7242857E-1,1.4303084E-2,6.650906E-1,-8.554593E-3,4.7208704E-3,4.0553322E-1,1E0,4.8853043E-1,-6.5434864E-3,5E-1,1.0231561E-2,7.246746E-4,-5.443629E-3,2.1700077E-3,-3.3189866E-3,1.0937225E-3,-2.671641E-3,-3.0526312E-3,3.1304348E-3,3.4102302E-3,-2.992517E-3],"split_indices":[55,2,2,1,21,64,7,0,64,16,41,21,0,61,0,0,0,0,0,0,0,0,0,0,0],"split_type":[0,0,0,0,0,0,0,0,0,0,0,0,0,0,0,0,0,0,0,0,0,0,0,0,0],"sum_hessian":[2.676747E3,1.8208162E3,8.559308E2,3.5854163E2,1.4622745E3,1.543846E2,7.015462E2,5.840548E1,3.0013614E2,3.9898203E2,1.0632926E3,1.1109909E2,4.32855E1,6.6459564E2,3.69506E1,5.7619064E1,2.4251707E2,3.7587788E1,3.6139423E2,8.164379E2,2.4685464E2,4.7555218E1,6.3543873E1,6.2860443E2,3.5991196E1],"tree_param":{"num_deleted":"0","num_feature":"75","num_nodes":"25","size_leaf_vector":"1"}},{"base_weights":[3.5552974E-3,1.8265281E0,-3.7697107E-1,2.344261E0,1.8290093E-2,8.3048604E-2,-9.874442E-3,5.561767E-2,3.435202E-2,1.2958167E-2,-2.21566E-1,-6.033437E-4,-8.872555E-3],"categories":[],"categories_nodes":[],"categories_segments":[],"categories_sizes":[],"default_left":[0,0,0,0,0,0,0,0,0,0,0,0,0],"id":42,"left_children":[1,3,5,7,-1,9,-1,-1,-1,-1,11,-1,-1],"loss_changes":[5.3305743E2,5.462094E1,3.4414917E1,5.96994E0,0E0,2.3041767E1,0E0,0E0,0E0,0E0,3.3878193E0,0E0,0E0],"parents":[2147483647,0,0,1,1,2,2,3,3,5,5,10,10],"right_children":[2,4,6,8,-1,10,-1,-1,-1,-1,12,-1,-1],"split_conditions":[1.5893724E-3,7.309666E-4,2.344646E-3,5.296174E-4,1.8290093E-2,7.7666694E-1,-9.874442E-3,5.561767E-2,3.435202E-2,1.2958167E-2,1.0200703E-3,-6.033437E-4,-8.872555E-3],"split_indices":[1,3,1,3,0,25,0,0,0,0,33,0,0],"split_type":[0,0,0,0,0,0,0,0,0,0,0,0,0],"sum_hessian":[7.6141583E2,1.2974855E2,6.316673E2,7.941003E1,5.0338516E1,1.2717169E2,5.044956E2,4.0253094E1,3.9156937E1,4.3944336E1,8.3227356E1,4.7739258E1,3.5488102E1],"tree_param":{"num_deleted":"0","num_feature":"75","num_nodes":"13","size_leaf_vector":"1"}},{"base_weights":[4.006962E-3,-4.330076E-1,2.0833412E-2,-5.235614E-1,-2.2854412E-3,-4.1699614E-3,8.9868546E-2,-1.4138045E-2,-3.6665162E-3,5.9898708E-2,-4.8931688E-2,-2.0287456E-1,1.3211529E-1,1.6771147E-3,-1.5886298E-3,9.934118E-4,-1.6488759E-3,-8.5655255E-3,-4.7211416E-4,-2.2090434E-3,3.1206806E-3],"categories":[],"categories_nodes":[],"categories_segments":[],"categories_sizes":[],"default_left":[0,0,0,0,0,0,0,0,0,0,0,0,0,0,0,0,0,0,0,0,0],"id":43,"left_children":[1,3,5,7,-1,9,11,-1,-1,13,15,17,19,-1,-1,-1,-1,-1,-1,-1,-1],"loss_changes":[3.0745453E1,3.9740562E0,7.0407786E0,6.565113E0,0E0,8.53019E0,1.3441623E1,0E0,0E0,4.0933585E0,5.833225E0,5.251216E0,5.585823E0,0E0,0E0,0E0,0E0,0E0,0E0,0E0,0E0],"parents":[2147483647,0,0,1,1,2,2,3,3,5,5,6,6,9,9,10,10,11,11,12,12],"right_children":[2,4,6,8,-1,10,12,-1,-1,14,16,18,20,-1,-1,-1,-1,-1,-1,-1,-1],"split_conditions":[5.1301084E-3,1.5369627E0,5E0,6.7734695E-4,-2.2854412E-3,8.1650054E-1,1.5022416E-3,-1.4138045E-2,-3.6665162E-3,1E0,6.959773E-1,8.854147E-1,5.1681534E-4,1.6771147E-3,-1.5886298E-3,9.934118E-4,-1.6488759E-3,-8.5655255E-3,-4.7211416E-4,-2.2090434E-3,3.1206806E-3],"split_indices":[62,23,73,5,0,25,1,0,0,70,65,25,31,0,0,0,0,0,0,0,0],"split_type":[0,0,0,0,0,0,0,0,0,0,0,0,0,0,0,0,0,0,0,0,0],"sum_hessian":[4.202464E3,1.5195631E2,4.0505076E3,1.1561357E2,3.6342747E1,2.9702932E3,1.0802146E3,7.2073235E1,4.3540333E1,1.2166641E3,1.753629E3,1.3329857E2,9.46916E2,1.0422399E3,1.7442418E2,4.4067368E2,1.3129553E3,5.5969616E1,7.732895E1,8.214103E1,8.6477496E2],"tree_param":{"num_deleted":"0","num_feature":"75","num_nodes":"21","size_leaf_vector":"1"}},{"base_weights":[-4.2100493E-3,-3.2007846E-1,2.3951637E-2,-1.4862122E-1,-4.1933596E-1,7.584752E-2,-8.379637E-2,-5.3432444E-3,-2.9966446E-5,-4.655074E-3,-9.442715E-3,-4.2436354E-2,1.2827888E-1,-1.2068866E-1,9.387917E-2,-3.8216843E-3,1.7810188E-4,9.765307E-4,4.025905E-3,-3.0199646E-3,2.8240487E-3,6.8966425E-3,-2.0880846E-3],"categories":[],"categories_nodes":[],"categories_segments":[],"categories_sizes":[],"default_left":[0,0,0,0,0,0,0,0,0,0,0,0,0,0,0,0,0,0,0,0,0,0,0],"id":44,"left_children":[1,3,5,7,9,11,13,-1,-1,-1,-1,15,17,19,21,-1,-1,-1,-1,-1,-1,-1,-1],"loss_changes":[2.1063686E1,2.8293152E0,1.2080704E1,1.217746E0,4.934311E-1,9.12038E0,4.634019E0,0E0,0E0,0E0,0E0,3.515657E0,5.7395763E0,4.697098E0,6.1828227E0,0E0,0E0,0E0,0E0,0E0,0E0,0E0,0E0],"parents":[2147483647,0,0,1,1,2,2,3,3,4,4,5,5,6,6,11,11,12,12,13,13,14,14],"right_children":[2,4,6,8,10,12,14,-1,-1,-1,-1,16,18,20,22,-1,-1,-1,-1,-1,-1,-1,-1],"split_conditions":[1.4241998E-3,1E0,1.6666667E-1,4.3120387E-1,6.704515E-1,2.9470066E-3,1E0,-5.3432444E-3,-2.9966446E-5,-4.655074E-3,-9.442715E-3,9.918358E-3,9.953075E-1,6.949821E-3,3.9191106E-1,-3.8216843E-3,1.7810188E-4,9.765307E-4,4.025905E-3,-3.0199646E-3,2.8240487E-3,6.8966425E-3,-2.0880846E-3],"split_indices":[1,74,61,19,20,8,70,0,0,0,0,62,20,1,63,0,0,0,0,0,0,0,0],"split_type":[0,0,0,0,0,0,0,0,0,0,0,0,0,0,0,0,0,0,0,0,0,0,0],"sum_hessian":[2.3457031E3,1.9092285E2,2.1547803E3,7.459573E1,1.16327126E2,1.4580514E3,6.96729E2,3.8072998E1,3.652273E1,3.1325277E1,8.5001854E1,4.4505466E2,1.0129967E3,5.800621E2,1.1666693E2,1.1465873E2,3.3039594E2,4.907949E2,5.2220184E2,5.227427E2,5.7319366E1,5.162866E1,6.503827E1],"tree_param":{"num_deleted":"0","num_feature":"75","num_nodes":"23","size_leaf_vector":"1"}},{"base_weights":[3.4907237E-3,-4.2125095E-2,1.9976903E-1,-2.0267545E-1,2.1656884E-3,-1.4090091E-1,2.6230347E-1,-3.6847973E-1,-1.5366744E-1,4.222768E-2,-1.1720931E-1,2.5277954E-4,-5.7173143E-3,3.5117263E-1,1.0211811E-1,-9.191455E-3,-4.220157E-3,3.2804522E-3,-3.942104E-3,4.710859E-4,6.444894E-3,5.889001E-3,-3.086603E-3,5.2829534E-3,1.085465E-2,8.942797E-3,1.7690871E-4],"categories":[],"categories_nodes":[],"categories_segments":[],"categories_sizes":[],"default_left":[0,0,0,0,0,0,0,0,0,0,0,0,0,0,0,0,0,0,0,0,0,0,0,0,0,0,0],"id":45,"left_children":[1,3,5,7,9,11,13,15,17,19,21,-1,-1,23,25,-1,-1,-1,-1,-1,-1,-1,-1,-1,-1,-1,-1],"loss_changes":[2.432937E1,1.57162895E1,1.1096619E1,3.4472084E0,8.210822E0,1.9335948E0,5.8664665E0,8.7153435E-1,5.3002405E0,6.572393E0,6.641013E0,0E0,0E0,3.7827797E0,4.9626474E0,0E0,0E0,0E0,0E0,0E0,0E0,0E0,0E0,0E0,0E0,0E0,0E0],"parents":[2147483647,0,0,1,1,2,2,3,3,4,4,5,5,6,6,7,7,8,8,9,9,10,10,13,13,14,14],"right_children":[2,4,6,8,10,12,14,16,18,20,22,-1,-1,24,26,-1,-1,-1,-1,-1,-1,-1,-1,-1,-1,-1,-1],"split_conditions":[1E0,1.2669361E-3,4.4899076E-1,6.125779E-4,2.977826E-1,4.0821895E-1,4E0,4.3514875E-1,6.9540046E-4,2.684153E0,4.38218E-1,2.5277954E-4,-5.7173143E-3,3.75E-1,5.00675E-1,-9.191455E-3,-4.220157E-3,3.2804522E-3,-3.942104E-3,4.710859E-4,6.444894E-3,5.889001E-3,-3.086603E-3,5.2829534E-3,1.085465E-2,8.942797E-3,1.7690871E-4],"split_indices":[42,5,16,3,7,16,73,19,5,20,16,0,0,9,16,0,0,0,0,0,0,0,0,0,0,0,0],"split_type":[0,0,0,0,0,0,0,0,0,0,0,0,0,0,0,0,0,0,0,0,0,0,0,0,0,0,0],"sum_hessian":[2.702711E3,2.192885E3,5.0982602E2,4.7426724E2,1.7186178E3,7.7247635E1,4.3257837E2,1.0141171E2,3.7285553E2,1.2913655E3,4.2725223E2,3.7169147E1,4.0078484E1,2.7391498E2,1.5866339E2,5.858907E1,4.282264E1,4.2462135E1,3.303934E2,1.2153556E3,7.600998E1,3.250583E1,3.947464E2,1.95051E2,7.886399E1,3.0201979E1,1.2846141E2],"tree_param":{"num_deleted":"0","num_feature":"75","num_nodes":"27","size_leaf_vector":"1"}},{"base_weights":[1.499928E-2,2.0097198E0,-3.305718E-1,5.4353736E-2,1.4259524E0,2.994075E-1,-4.6178982E-1,3.6361724E-2,1.920117E-2,1.5628891E-2,5.1152096E-3,-2.5980175E-3,-4.8513553E-1,-5.2069365E-3,5.604144E-3,-4.8057544E-3,-1.0033066E-2],"categories":[],"categories_nodes":[],"categories_segments":[],"categories_sizes":[],"default_left":[0,0,0,0,0,0,0,0,0,0,0,0,0,0,0,0,0],"id":46,"left_children":[1,3,5,-1,7,9,11,-1,-1,-1,13,-1,15,-1,-1,-1,-1],"loss_changes":[5.24579E2,3.275705E1,5.402131E1,0E0,5.853134E0,1.5593892E1,3.669754E0,0E0,0E0,0E0,5.6102457E0,0E0,1.2890778E0,0E0,0E0,0E0,0E0],"parents":[2147483647,0,0,1,1,2,2,4,4,5,5,6,6,10,10,12,12],"right_children":[2,4,6,-1,8,10,12,-1,-1,-1,14,-1,16,-1,-1,-1,-1],"split_conditions":[8.261938E-4,5.296174E-4,1.2587572E-3,5.4353736E-2,9.353287E-1,7.9793006E-1,1.3995204E-3,3.6361724E-2,1.920117E-2,1.5628891E-2,4E0,-2.5980175E-3,1.0904156E-2,-5.2069365E-3,5.604144E-3,-4.8057544E-3,-1.0033066E-2],"split_indices":[3,3,3,0,25,25,3,0,0,0,73,0,62,0,0,0,0],"split_type":[0,0,0,0,0,0,0,0,0,0,0,0,0,0,0,0,0],"sum_hessian":[7.539025E2,1.0940281E2,6.4449976E2,4.4098873E1,6.530393E1,1.0978152E2,5.347182E2,3.0148355E1,3.515558E1,3.9089592E1,7.0691925E1,3.7842934E1,4.968753E2,3.5132507E1,3.5559418E1,3.626223E1,4.6061307E2],"tree_param":{"num_deleted":"0","num_feature":"75","num_nodes":"17","size_leaf_vector":"1"}},{"base_weights":[1.3271181E-2,-3.6552778E-1,3.642797E-2,-5.425243E-1,-2.1312322E-1,1.5159123E-2,9.60888E-2,-1.4544636E-2,-6.3752183E-3,-3.3135697E-1,9.116672E-4,-6.50411E-3,1.19793035E-1,-1.8332861E-1,1.2786148E-1,-9.627097E-3,-3.531021E-3,3.712898E-3,-3.3429827E-4,7.150669E-3,1.9087944E-3,-9.412525E-3,-4.6779952E-4,2.9962366E-3,-1.8469276E-3],"categories":[],"categories_nodes":[],"categories_segments":[],"categories_sizes":[],"default_left":[0,0,0,0,0,0,0,0,0,0,0,0,0,0,0,0,0,0,0,0,0,0,0,0,0],"id":47,"left_children":[1,3,5,7,9,11,13,-1,-1,15,-1,17,19,21,23,-1,-1,-1,-1,-1,-1,-1,-1,-1,-1],"loss_changes":[3.643612E1,5.726326E0,4.9292E0,3.2117214E0,4.316328E0,6.651195E0,9.156369E0,0E0,0E0,1.6061773E0,0E0,4.649953E0,2.5831542E0,4.5189824E0,4.5420113E0,0E0,0E0,0E0,0E0,0E0,0E0,0E0,0E0,0E0,0E0],"parents":[2147483647,0,0,1,1,2,2,3,3,4,4,5,5,6,6,9,9,11,11,12,12,13,13,14,14],"right_children":[2,4,6,8,10,12,14,-1,-1,16,-1,18,20,22,24,-1,-1,-1,-1,-1,-1,-1,-1,-1,-1],"split_conditions":[6.924897E-4,4.9902155E-4,5E0,4.09635E-1,6E0,1E0,5.1681534E-4,-1.4544636E-2,-6.3752183E-3,4.149294E-1,9.116672E-4,3.2225816E-4,2.2638443E-1,6.7796516E-3,6.746533E-3,-9.627097E-3,-3.531021E-3,3.712898E-3,-3.3429827E-4,7.150669E-3,1.9087944E-3,-9.412525E-3,-4.6779952E-4,2.9962366E-3,-1.8469276E-3],"split_indices":[3,3,73,19,73,72,31,0,0,17,0,31,21,0,1,0,0,0,0,0,0,0,0,0,0],"split_type":[0,0,0,0,0,0,0,0,0,0,0,0,0,0,0,0,0,0,0,0,0,0,0,0,0],"sum_hessian":[4.164999E3,2.3614761E2,3.9288516E3,1.04187935E2,1.3195969E2,2.9052754E3,1.0235761E3,5.2153133E1,5.20348E1,9.1316536E1,4.0643147E1,2.4053174E3,4.99958E2,1.0143992E2,9.2213617E2,4.1524067E1,4.9792473E1,1.162974E2,2.28902E3,4.0733868E1,4.5922415E2,3.3074463E1,6.8365456E1,8.414863E2,8.064985E1],"tree_param":{"num_deleted":"0","num_feature":"75","num_nodes":"25","size_leaf_vector":"1"}},{"base_weights":[5.8535165E-3,-1.9537021E-1,5.5358905E-2,-3.3425942E-1,-1.05229616E-1,1.2080979E-1,-3.3340298E-2,-8.760549E-3,-2.3407775E-1,-1.729947E-1,8.263682E-2,2.4930595E-1,6.740122E-2,-2.5767007E-1,-1.02347275E-2,-8.154091E-4,-7.013785E-3,5.038563E-4,-4.3846895E-3,-2.3329796E-3,6.465411E-3,3.8278159E-3,1.0433418E-2,-3.207272E-4,2.7699666E-3,-1.631828E-3,-7.994131E-3,-9.960686E-4,3.576398E-3],"categories":[],"categories_nodes":[],"categories_segments":[],"categories_sizes":[],"default_left":[0,0,0,0,0,0,0,0,0,0,0,0,0,0,0,0,0,0,0,0,0,0,0,0,0,0,0,0,0],"id":48,"left_children":[1,3,5,7,9,11,13,-1,15,17,19,21,23,25,27,-1,-1,-1,-1,-1,-1,-1,-1,-1,-1,-1,-1,-1,-1],"loss_changes":[2.3283802E1,5.4451313E0,1.0988636E1,1.2051315E0,3.729948E0,7.2545385E0,3.9980104E0,0E0,2.0015707E0,2.0670285E0,3.8565965E0,4.3196793E0,4.665704E0,1.4731579E0,5.4175587E0,0E0,0E0,0E0,0E0,0E0,0E0,0E0,0E0,0E0,0E0,0E0,0E0,0E0,0E0],"parents":[2147483647,0,0,1,1,2,2,3,3,4,4,5,5,6,6,8,8,9,9,10,10,11,11,12,12,13,13,14,14],"right_children":[2,4,6,8,10,12,14,-1,16,18,20,22,24,26,28,-1,-1,-1,-1,-1,-1,-1,-1,-1,-1,-1,-1,-1,-1],"split_conditions":[1.1860641E-3,1.3712095E-3,1.6666667E-1,5.371992E-4,2.8459752E-1,-4.5324534E-2,2.3695363E-1,-8.760549E-3,1.3333334E-1,1.2443839E-2,8.5772675E-1,1E0,3.6899925E-3,6.0219216E-1,1.762172E-1,-8.154091E-4,-7.013785E-3,5.038563E-4,-4.3846895E-3,-2.3329796E-3,6.465411E-3,3.8278159E-3,1.0433418E-2,-3.207272E-4,2.7699666E-3,-1.631828E-3,-7.994131E-3,-9.960686E-4,3.576398E-3],"split_indices":[3,1,60,2,36,29,17,0,11,37,14,67,1,16,35,0,0,0,0,0,0,0,0,0,0,0,0,0,0],"split_type":[0,0,0,0,0,0,0,0,0,0,0,0,0,0,0,0,0,0,0,0,0,0,0,0,0,0,0,0,0],"sum_hessian":[2.3381123E3,4.5791077E2,1.8802015E3,1.7484184E2,2.830689E2,1.0845017E3,7.9569977E2,7.846253E1,9.637931E1,2.1016095E2,7.290797E1,3.1243826E2,7.720635E2,6.943796E1,7.2626184E2,3.9400906E1,5.6978405E1,3.7970142E1,1.7219081E2,3.958922E1,3.331875E1,2.6337796E2,4.906031E1,3.530383E2,4.1902518E2,3.4684322E1,3.4753635E1,6.045792E2,1.2168262E2],"tree_param":{"num_deleted":"0","num_feature":"75","num_nodes":"29","size_leaf_vector":"1"}},{"base_weights":[-3.9013287E-3,-7.225998E-2,1.3819815E-1,-2.1715061E-1,-3.2518346E-2,-1.37664E-1,1.8039918E-1,1.3951351E-3,-2.5337976E-1,-1.5473878E-1,1.2956208E-2,-7.4817883E-3,-2.9358383E-2,2.1935526E-1,1.6729502E-2,-2.820355E-3,-6.124614E-3,1.2995506E-3,-3.6760685E-3,1.0589459E-3,-2.1456012E-3,-3.316274E-3,2.1803433E-3,5.244999E-3,8.065025E-6,6.1045615E-3,-2.2613835E-3],"categories":[],"categories_nodes":[],"categories_segments":[],"categories_sizes":[],"default_left":[0,0,0,0,0,0,0,0,0,0,0,0,0,0,0,0,0,0,0,0,0,0,0,0,0,0,0],"id":49,"left_children":[1,3,5,7,9,11,13,-1,15,17,19,-1,21,23,25,-1,-1,-1,-1,-1,-1,-1,-1,-1,-1,-1,-1],"loss_changes":[2.6167292E1,1.0353559E1,1.0267654E1,4.190855E0,8.064564E0,2.737143E0,4.7210007E0,0E0,1.7122307E0,2.6045227E0,5.0253577E0,0E0,1.6744201E0,5.6135635E0,5.8900614E0,0E0,0E0,0E0,0E0,0E0,0E0,0E0,0E0,0E0,0E0,0E0,0E0],"parents":[2147483647,0,0,1,1,2,2,3,3,4,4,5,5,6,6,8,8,9,9,10,10,12,12,13,13,14,14],"right_children":[2,4,6,8,10,12,14,-1,16,18,20,-1,22,24,26,-1,-1,-1,-1,-1,-1,-1,-1,-1,-1,-1,-1],"split_conditions":[2E0,9.784197E-4,9.115605E-3,1E0,3.7242857E-1,7.735534E-1,5E0,1.3951351E-3,-1.3462115E-4,4.2256904E-1,5E0,-7.4817883E-3,7.576607E-3,1E0,8.8747615E-1,-2.820355E-3,-6.124614E-3,1.2995506E-3,-3.6760685E-3,1.0589459E-3,-2.1456012E-3,-3.316274E-3,2.1803433E-3,5.244999E-3,8.065025E-6,6.1045615E-3,-2.2613835E-3],"split_indices":[55,2,0,73,21,14,73,0,26,16,73,0,0,68,23,0,0,0,0,0,0,0,0,0,0,0,0],"split_type":[0,0,0,0,0,0,0,0,0,0,0,0,0,0,0,0,0,0,0,0,0,0,0,0,0,0,0],"sum_hessian":[2.691156E3,1.8204161E3,8.707398E2,3.862493E2,1.4341669E3,1.1305841E2,7.576814E2,4.1446568E1,3.4480273E2,3.8993594E2,1.044231E3,3.175667E1,8.1301735E1,6.087203E2,1.4896107E2,1.168477E2,2.2795502E2,4.311266E1,3.4682327E2,7.879822E2,2.5624878E2,4.2454685E1,3.884705E1,5.0659647E2,1.02123825E2,4.616015E1,1.0280093E2],"tree_param":{"num_deleted":"0","num_feature":"75","num_nodes":"27","size_leaf_vector":"1"}},{"base_weights":[2.8998377E-2,2.066978E0,-2.8407028E-1,2.2170259E-2,2.4308817E0,3.7082577E-1,-4.6901202E-1,5.709763E-2,3.495533E-2,7.180933E-2,2.0163987E-2,-2.0453567E-3,-4.902216E-1,-3.8994951E-3,1.049844E-2,-6.3100928E-3,-1.0099734E-2],"categories":[],"categories_nodes":[],"categories_segments":[],"categories_sizes":[],"default_left":[0,0,0,0,0,0,0,0,0,0,0,0,0,0,0,0,0],"id":50,"left_children":[1,3,5,-1,7,9,11,-1,-1,13,-1,-1,15,-1,-1,-1,-1],"loss_changes":[4.8918042E2,2.5763672E1,8.0924164E1,0E0,3.3296509E0,2.7292227E1,3.5923996E0,0E0,0E0,1.3036856E1,0E0,0E0,3.7271118E-1,0E0,0E0,0E0,0E0],"parents":[2147483647,0,0,1,1,2,2,4,4,5,5,6,6,9,9,12,12],"right_children":[2,4,6,-1,8,10,12,-1,-1,14,-1,-1,16,-1,-1,-1,-1],"split_conditions":[7.6353736E-4,5E0,1.3265632E-3,2.2170259E-2,5.296174E-4,1E0,1.00883655E-2,5.709763E-2,3.495533E-2,5E0,2.0163987E-2,-2.0453567E-3,1.554679E-3,-3.8994951E-3,1.049844E-2,-6.3100928E-3,-1.0099734E-2],"split_indices":[3,73,3,0,3,56,62,0,0,73,0,0,3,0,0,0,0],"split_type":[0,0,0,0,0,0,0,0,0,0,0,0,0,0,0,0,0],"sum_hessian":[7.595493E2,9.911722E1,6.604321E2,3.0994675E1,6.812254E1,1.4417525E2,5.162569E2,3.56966E1,3.242594E1,1.00941956E2,4.3233288E1,3.0467583E1,4.8578928E2,6.3915405E1,3.7026546E1,4.5722233E1,4.4006705E2],"tree_param":{"num_deleted":"0","num_feature":"75","num_nodes":"17","size_leaf_vector":"1"}},{"base_weights":[-1.995186E-3,-5.637425E-1,1.2820256E-2,-1.3917306E-2,-4.2610643E-3,-1.2974536E-1,2.5657479E-2,-6.9856435E-2,-9.709882E-3,-5.1007434E-3,1.1847794E-1,-7.903199E-3,9.692249E-5,1.2790593E-3,-1.0182334E-3,2.792162E-3,-2.0044083E-3],"categories":[],"categories_nodes":[],"categories_segments":[],"categories_sizes":[],"default_left":[0,0,0,0,0,0,0,0,0,0,0,0,0,0,0,0,0],"id":51,"left_children":[1,3,5,-1,-1,7,9,11,-1,13,15,-1,-1,-1,-1,-1,-1],"loss_changes":[3.494081E1,4.1001053E0,7.3841963E0,0E0,0E0,6.7040257E0,1.070267E1,7.2305317E0,0E0,8.858104E0,4.369116E0,0E0,0E0,0E0,0E0,0E0,0E0],"parents":[2147483647,0,0,1,1,2,2,5,5,6,6,7,7,9,9,10,10],"right_children":[2,4,6,-1,-1,8,10,12,-1,14,16,-1,-1,-1,-1,-1,-1],"split_conditions":[4.9902155E-4,3.7161645E-1,7.7753427E-4,-1.3917306E-2,-4.2610643E-3,1E0,5E0,-3.1825673E-4,-9.709882E-3,8.0426514E-1,6.746533E-3,-7.903199E-3,9.692249E-5,1.2790593E-3,-1.0182334E-3,2.792162E-3,-2.0044083E-3],"split_indices":[3,40,2,0,0,68,73,26,0,25,1,0,0,0,0,0,0],"split_type":[0,0,0,0,0,0,0,0,0,0,0,0,0,0,0,0,0],"sum_hessian":[4.1596343E3,1.0489758E2,4.0547368E3,7.3011696E1,3.1885887E1,3.2947168E2,3.7252651E3,2.8627325E2,4.3198418E1,2.7961455E3,9.2911957E2,5.230914E1,2.3396411E2,1.1103469E3,1.6857987E3,8.503334E2,7.87862E1],"tree_param":{"num_deleted":"0","num_feature":"75","num_nodes":"17","size_leaf_vector":"1"}},{"base_weights":[2.0763795E-4,-3.0980206E-1,2.5866305E-2,-3.995319E-1,-1.5722747E-1,1.3577473E-1,-3.0538682E-2,-4.440071E-3,-9.451964E-3,-5.7767075E-3,-0E0,1.7443612E-1,-1.691477E-1,-6.387155E-2,1.3618334E-1,3.9024334E-3,-4.1190665E-3,-6.0668355E-3,8.552253E-4,-2.439995E-3,-1.6064296E-5,-3.427177E-3,3.7453389E-3],"categories":[],"categories_nodes":[],"categories_segments":[],"categories_sizes":[],"default_left":[0,0,0,0,0,0,0,0,0,0,0,0,0,0,0,0,0,0,0,0,0,0,0],"id":52,"left_children":[1,3,5,7,9,11,13,-1,-1,-1,-1,15,17,19,21,-1,-1,-1,-1,-1,-1,-1,-1],"loss_changes":[1.8412626E1,1.9538746E0,1.3429509E1,7.3013115E-1,1.6194276E0,8.752152E0,7.904048E0,0E0,0E0,0E0,0E0,5.2686367E0,2.5220006E0,4.3058476E0,3.8077512E0,0E0,0E0,0E0,0E0,0E0,0E0,0E0,0E0],"parents":[2147483647,0,0,1,1,2,2,3,3,4,4,5,5,6,6,11,11,12,12,13,13,14,14],"right_children":[2,4,6,8,10,12,14,-1,-1,-1,-1,16,18,20,22,-1,-1,-1,-1,-1,-1,-1,-1],"split_conditions":[1.3712095E-3,4.5075876E-1,0E0,2E0,9.905045E-1,4E0,1E0,-4.440071E-3,-9.451964E-3,-5.7767075E-3,-0E0,9.506849E-1,1.7591145E-2,3.530947E-3,1.1686567E-1,3.9024334E-3,-4.1190665E-3,-6.0668355E-3,8.552253E-4,-2.439995E-3,-1.6064296E-5,-3.427177E-3,3.7453389E-3],"split_indices":[1,19,60,56,25,53,70,0,0,0,0,28,0,1,6,0,0,0,0,0,0,0,0],"split_type":[0,0,0,0,0,0,0,0,0,0,0,0,0,0,0,0,0,0,0,0,0,0,0],"sum_hessian":[2.3265874E3,1.7381651E2,2.152771E3,1.043279E2,6.948862E1,7.3168427E2,1.4210867E3,3.5946743E1,6.838116E1,3.789116E1,3.1597456E1,6.519469E2,7.973737E1,1.1883489E3,2.3273784E2,6.20955E2,3.0991917E1,4.9473034E1,3.0264343E1,6.1280945E2,5.755394E2,3.0751444E1,2.0198639E2],"tree_param":{"num_deleted":"0","num_feature":"75","num_nodes":"23","size_leaf_vector":"1"}},{"base_weights":[-1.0037372E-3,-4.4134445E-2,1.766794E-1,-2.9697177E-1,-1.7170098E-2,-1.28661E-1,2.3124096E-1,-1.7052452E-4,-3.6375678E-1,7.457586E-3,-1.555443E-1,5.7341706E-4,-4.6845768E-3,1.7565614E-1,4.351274E-1,-9.221273E-3,-5.375956E-3,-2.1173086E-3,6.491566E-4,1.1682005E-3,-4.542389E-3,1.088246E-3,6.3523045E-3,1.2332378E-2,4.251817E-3],"categories":[],"categories_nodes":[],"categories_segments":[],"categories_sizes":[],"default_left":[0,0,0,0,0,0,0,0,0,0,0,0,0,0,0,0,0,0,0,0,0,0,0,0,0],"id":53,"left_children":[1,3,5,7,9,11,13,-1,15,17,19,-1,-1,21,23,-1,-1,-1,-1,-1,-1,-1,-1,-1,-1],"loss_changes":[2.0657532E1,1.4677692E1,8.902578E0,3.8102894E0,6.8020573E0,1.4561609E0,4.550043E0,0E0,8.097706E-1,4.7188125E0,4.7388287E0,0E0,0E0,5.949897E0,2.9142094E0,0E0,0E0,0E0,0E0,0E0,0E0,0E0,0E0,0E0,0E0],"parents":[2147483647,0,0,1,1,2,2,3,3,4,4,5,5,6,6,8,8,9,9,10,10,13,13,14,14],"right_children":[2,4,6,8,10,12,14,-1,16,18,20,-1,-1,22,24,-1,-1,-1,-1,-1,-1,-1,-1,-1,-1],"split_conditions":[1E0,8.108383E-4,4.4899076E-1,7.155256E-1,6.8359596E-1,1.3920846E-2,6.436093E-1,-1.7052452E-4,9.905045E-1,5.891936E-1,4.5493984E-1,5.7341706E-4,-4.6845768E-3,2.5458047E-3,-6.4089254E-5,-9.221273E-3,-5.375956E-3,-2.1173086E-3,6.491566E-4,1.1682005E-3,-4.542389E-3,1.088246E-3,6.3523045E-3,1.2332378E-2,4.251817E-3],"split_indices":[42,3,16,25,10,64,16,0,25,25,24,0,0,3,66,0,0,0,0,0,0,0,0,0,0],"split_type":[0,0,0,0,0,0,0,0,0,0,0,0,0,0,0,0,0,0,0,0,0,0,0,0,0],"sum_hessian":[2.6981343E3,2.175197E3,5.2293726E2,2.0494067E2,1.9702562E3,7.7270966E1,4.4566632E2,4.057336E1,1.6436731E2,1.6719155E3,2.983407E2,3.000391E1,4.7267056E1,3.5650943E2,8.91569E1,7.2867004E1,9.150031E1,2.9680978E2,1.3751057E3,7.3173805E1,2.251669E2,1.9642209E2,1.6008733E2,4.4943466E1,4.4213436E1],"tree_param":{"num_deleted":"0","num_feature":"75","num_nodes":"25","size_leaf_vector":"1"}},{"base_weights":[-1.8819757E-2,1.6697973E0,-3.2653055E-1,1.7571488E-2,2.0168698E0,1.0594778E-2,-4.1399646E-1,4.8546392E-2,2.6507916E-2,2.0875767E-2,-4.701458E-1,5.920913E-3,-4.458877E-3,-5.2031195E-3,-9.885505E-3],"categories":[],"categories_nodes":[],"categories_segments":[],"categories_sizes":[],"default_left":[0,0,0,0,0,0,0,0,0,0,0,0,0,0,0],"id":54,"left_children":[1,3,5,-1,7,-1,9,-1,-1,11,13,-1,-1,-1,-1],"loss_changes":[3.8930905E2,2.4937744E1,4.8153748E1,0E0,1.0464294E1,0E0,1.4375122E1,0E0,0E0,4.7958E0,1.8380051E0,0E0,0E0,0E0,0E0],"parents":[2147483647,0,0,1,1,2,2,4,4,6,6,9,9,10,10],"right_children":[2,4,6,-1,8,-1,10,-1,-1,12,14,-1,-1,-1,-1],"split_conditions":[8.261938E-4,5E0,8.9349726E-4,1.7571488E-2,5.729744E-4,1.0594778E-2,1.2587572E-3,4.8546392E-2,2.6507916E-2,1.9281487E-3,1.1439738E-2,5.920913E-3,-4.458877E-3,-5.2031195E-3,-9.885505E-3],"split_indices":[3,73,2,0,2,0,3,0,0,31,62,0,0,0,0],"split_type":[0,0,0,0,0,0,0,0,0,0,0,0,0,0,0],"sum_hessian":[7.44384E2,1.1244081E2,6.319432E2,3.795329E1,7.448752E1,5.663312E1,5.7531006E2,4.156244E1,3.2925083E1,6.498511E1,5.1032495E2,3.1191313E1,3.379379E1,5.837503E1,4.5194992E2],"tree_param":{"num_deleted":"0","num_feature":"75","num_nodes":"15","size_leaf_vector":"1"}},{"base_weights":[-2.5096175E-3,-3.3071053E-1,1.713174E-2,-5.2781844E-1,-1.9607428E-1,1.09028354E-1,-1.6258329E-3,-4.607131E-3,-1.3079154E-2,-3.064786E-1,8.8450976E-4,-4.964675E-3,1.3234335E-1,-3.1045672E-2,7.9168975E-2,-9.607705E-3,-3.5021952E-4,-9.937969E-4,3.1480538E-3,-1.3496837E-4,-1.830378E-3,-3.0839415E-3,2.0323219E-3],"categories":[],"categories_nodes":[],"categories_segments":[],"categories_sizes":[],"default_left":[0,0,0,0,0,0,0,0,0,0,0,0,0,0,0,0,0,0,0,0,0,0,0],"id":55,"left_children":[1,3,5,7,9,11,13,-1,-1,15,-1,-1,17,19,21,-1,-1,-1,-1,-1,-1,-1,-1],"loss_changes":[2.6998175E1,5.6051807E0,6.824544E0,2.5850334E0,4.067198E0,5.6244087E0,7.73292E0,0E0,0E0,4.8722925E0,0E0,0E0,2.9628334E0,3.4705703E0,4.560229E0,0E0,0E0,0E0,0E0,0E0,0E0,0E0,0E0],"parents":[2147483647,0,0,1,1,2,2,3,3,4,4,5,5,6,6,9,9,12,12,13,13,14,14],"right_children":[2,4,6,8,10,12,14,-1,-1,16,-1,-1,18,20,22,-1,-1,-1,-1,-1,-1,-1,-1],"split_conditions":[5.8620796E-3,3.553712E-3,5.939687E-1,1E0,1.4343164E0,1.696983E-3,5E0,-4.607131E-3,-1.3079154E-2,2.5617635E-1,8.8450976E-4,-4.964675E-3,7.68E-2,1.0838218E-2,1.4241998E-3,-9.607705E-3,-3.5021952E-4,-9.937969E-4,3.1480538E-3,-1.3496837E-4,-1.830378E-3,-3.0839415E-3,2.0323219E-3],"split_indices":[62,64,25,43,23,1,73,0,0,37,0,0,13,8,1,0,0,0,0,0,0,0,0],"split_type":[0,0,0,0,0,0,0,0,0,0,0,0,0,0,0,0,0,0,0,0,0,0,0],"sum_hessian":[4.1581997E3,2.3355263E2,3.924647E3,8.972306E1,1.4382957E2,6.6735876E2,3.2572883E3,3.0422695E1,5.930037E1,9.9410515E1,4.4419052E1,3.7797108E1,6.2956165E2,2.3937039E3,8.6358435E2,5.9740124E1,3.9670395E1,7.340923E1,5.561524E2,1.7158882E3,6.778157E2,7.227827E1,7.913061E2],"tree_param":{"num_deleted":"0","num_feature":"75","num_nodes":"23","size_leaf_vector":"1"}},{"base_weights":[1.0357061E-2,-3.6540976E-1,3.3773255E-2,-8.622099E-3,-3.4478733E-3,9.5678076E-2,-5.292305E-2,-7.183868E-2,1.4941014E-1,-1.1478366E-2,-1.7254023E-1,-2.3819278E-3,2.851398E-3,-5.3474223E-3,3.375635E-3,5.1409606E-4,-3.7709991E-3,-1.16506744E-4,-5.410121E-3],"categories":[],"categories_nodes":[],"categories_segments":[],"categories_sizes":[],"default_left":[0,0,0,0,0,0,0,0,0,0,0,0,0,0,0,0,0,0,0],"id":56,"left_children":[1,3,5,-1,-1,7,9,11,13,15,17,-1,-1,-1,-1,-1,-1,-1,-1],"loss_changes":[2.0446648E1,1.201973E0,1.187173E1,0E0,0E0,1.1691178E1,4.4491634E0,3.213624E0,8.003935E0,4.6226363E0,3.657683E0,0E0,0E0,0E0,0E0,0E0,0E0,0E0,0E0],"parents":[2147483647,0,0,1,1,2,2,5,5,6,6,7,7,8,8,9,9,10,10],"right_children":[2,4,6,-1,-1,8,10,12,14,16,18,-1,-1,-1,-1,-1,-1,-1,-1],"split_conditions":[1.2370588E-3,2.3168655E-1,1.6666667E-1,-8.622099E-3,-3.4478733E-3,9.935213E-3,5E0,1.544623E0,3.0685744E-1,1E0,1.3990921E-1,-2.3819278E-3,2.851398E-3,-5.3474223E-3,3.375635E-3,5.1409606E-4,-3.7709991E-3,-1.16506744E-4,-5.410121E-3],"split_indices":[1,29,60,0,0,0,73,15,20,72,38,0,0,0,0,0,0,0,0],"split_type":[0,0,0,0,0,0,0,0,0,0,0,0,0,0,0,0,0,0,0],"sum_hessian":[2.335377E3,1.3317113E2,2.2022058E3,9.466114E1,3.8509983E1,1.2879858E3,9.1421985E2,3.1029236E2,9.776935E2,6.845177E2,2.297022E2,2.5725623E2,5.3036144E1,4.057178E1,9.371217E2,5.655078E2,1.1900989E2,8.808476E1,1.4161743E2],"tree_param":{"num_deleted":"0","num_feature":"75","num_nodes":"19","size_leaf_vector":"1"}},{"base_weights":[-2.9908419E-3,-1.8240897E-1,3.931866E-2,-1.1459287E-1,-2.9732797E-1,-2.3119213E-2,1.4712264E-1,-3.458418E-1,-5.4743912E-2,-2.269341E-1,-3.9485267E-1,-1.573954E-1,2.6568003E-2,1.1680653E-1,3.7878248E-1,-9.749928E-3,-2.9431265E-3,1.4383442E-3,-2.6490348E-3,-6.194743E-3,-0E0,